tree
version=v3
num_class=1
num_tree_per_iteration=1
label_index=0
max_feature_idx=109
objective=binary sigmoid:1
feature_names=Column_0 Column_1 Column_2 Column_3 Column_4 Column_5 Column_6 Column_7 Column_8 Column_9 Column_10 Column_11 Column_12 Column_13 Column_14 Column_15 Column_16 Column_17 Column_18 Column_19 Column_20 Column_21 Column_22 Column_23 Column_24 Column_25 Column_26 Column_27 Column_28 Column_29 Column_30 Column_31 Column_32 Column_33 Column_34 Column_35 Column_36 Column_37 Column_38 Column_39 Column_40 Column_41 Column_42 Column_43 Column_44 Column_45 Column_46 Column_47 Column_48 Column_49 Column_50 Column_51 Column_52 Column_53 Column_54 Column_55 Column_56 Column_57 Column_58 Column_59 Column_60 Column_61 Column_62 Column_63 Column_64 Column_65 Column_66 Column_67 Column_68 Column_69 Column_70 Column_71 Column_72 Column_73 Column_74 Column_75 Column_76 Column_77 Column_78 Column_79 Column_80 Column_81 Column_82 Column_83 Column_84 Column_85 Column_86 Column_87 Column_88 Column_89 Column_90 Column_91 Column_92 Column_93 Column_94 Column_95 Column_96 Column_97 Column_98 Column_99 Column_100 Column_101 Column_102 Column_103 Column_104 Column_105 Column_106 Column_107 Column_108 Column_109
feature_infos=[-1.2442861158492335:1.3967710200145798] [-6.1779668597941511:3.7892411217217248] [-5.9694870061600804:3.8913954980494694] [-3.0511016180264159:12.63684299857742] [-3.997963252542831:6.7764395868794587] [-5.9123313763776544:5.8865834586058732] [-2.7185834764873529:6.2478981350466594] [-8.8195399940829979:5.2100611107563655] [-2.5022877441320963:5.1683183985970116] [-1.8194098976678421:10.465769929048475] [-8.7040073507617066:6.0510961182128762] [-1.0943273529916298:17.532819934537564] [-7.3486660635679533:5.0364784707715113] [-3.389864497307264:7.9489073343600651] [-2.2315593940572289:9.6961771298640471] [-1.7869759804715284:13.086103963202607] [-7.0498351759110633:5.0809248531466737] [-2.0930997662253881:14.660829793324726] [-0.54886439369998319:7.5471859856742407] [-3.1852991300411952:7.6203741871553135] [-4.003524690303137:6.2950010248915511] [-8.4951493861402749:6.7000365113462088] [-0.8888776334648808:17.62117214361135] [-1.1781070104301958:16.402828864345427] [-0.55736085003647962:16.735888374276815] [-2.138185573127545:11.316103521054913] [-2.1468055636152039:12.383337489165621] [-1.6851854994263171:20.289195233063928] [-1.353003429205424:7.8284238420587542] [-4.4676791659980291:7.3891834867298813] [-4.9240579023991282:7.1099714634610161] [-5.5869046861822618:11.708708112021283] [-5.7962589306086771:3.6309183724670095] [-7.2810360352997439:6.4599643171297325] [-3.2229333110424081:7.9993749680809438] none [-5.4027093435969613:6.0045615803762553] [-9.2646122472468662:5.3203389682587305] [-5.503300072390612:5.5247324427111906] [-0.4731765285359566:6.7846907700652475] [-6.0952274677436584:3.1573626849700505] [-0.061337121601918163:23.918338132686639] [-0.18429482724065985:18.76334651200952] [-0.13046894328221181:15.843465256062359] none [-8.5519992637630278:12.831463857812029] [-0.093323361515534484:23.44436420268465] [-5.7872975814779801:23.489889675660034] [-2.7771196957945734:17.781746433509912] [-2.8227783152976835:7.2330205281923963] [-52.260268446770205:9.0513079942131611] [-1.7851459837474213:41.74716303300788] [-1.0518944967354407:10.157579430671277] [-3.8715478301532742:11.391290014499573] none [-11.137648522816413:10.15137002170826] [-7.7837031838770301:4.3993755244113979] [-4.1428104739212905:11.881462259143969] [-12.334292298232379:6.7258073703870123] [-13.160338178974627:2.3745664475534065] [-10.691706979377599:5.9321108359659327] [-11.581521176563408:7.0362943316492315] [-2.75891851398623:8.5327051993409047] [-7.5289201949426729:13.710014057937292] [-4.9473192254450735:10.783510375226639] [-13.55628622329211:8.3176778949864794] none [-0.11415346605721019:8.760136985230309] none none [-0.12626774794641124:7.9196787482454001] none none [-0.065291769116224085:15.315866203899715] none none none none none none [-0.091824306172424847:10.890362712049587] none [-0.05327266931721774:18.77135147941236] [-0.12989909048298254:7.6982833080806312] none [-0.12361284651454939:8.0897740663410662] none none [-0.12938616422378835:7.7288016535553563] none [-0.087449642948653886:11.435152463540081] none [-0.13041013273932525:7.6681158050723255] none none none none [-0.12887133141298071:7.7596777268902635] none none none none [-0.10261117086012288:9.7455276225546328] [-0.11530437572582584:8.6726977506719205] [-0.13041013273932525:7.6681158050723255] none none none [-0.11357386495714113:8.804842561071295] [-0.36546769693591985:2.7362199405966576]
tree_sizes=3312 3303 3315 3306 3312 3314 3324 3333 3323 3320 3346 3330 3338 3325 3325 3345 3346 3315 3348 3325 3345 3329 3340 3343 3353 3340 3356 3348 3358 3361 3358 3362 3336 3360 3377 3378 3364 3379 3373 3362 3398 3382 3378 3375 3401 3383 3396 3403 3388 3402 3401 3425 3421 3395 3424 3427 3423 3410 3424 3440 3426 3430 3433 3448 3448 3439 3450 3464 3475 3460 3468 3459 3479 3481 3459 3475 3487 3482 3483 3500 3499 3508 3520 3517 3523 3518 3516 3526 3535 3533 3529 3545 3530 3534 3548 3551 3554 3543 3538 3558

Tree=0
num_leaves=31
num_cat=0
split_feature=18 0 38 20 19 49 13 9 0 40 5 47 22 8 27 57 13 11 6 4 30 13 21 6 5 13 17 47 60 8
split_gain=2582.41 2380.97 934.859 227.571 125.389 71.8849 55.0414 42.8403 21.5692 13.1166 33.5624 56.5849 12.7228 11.3552 9.63907 14.0872 8.90385 8.67122 7.49427 6.69246 6.00834 5.98551 2.65938 2.52808 2.49498 1.60632 1.3072 1.23962 0.837251 4.57271
threshold=-0.26040591850552192 -1.1747846122738699 0.1096463264301024 -0.42946017641295325 1.0000000180025095e-35 -0.3539432298022866 0.4343341644814272 0.11928929520778209 -1.035781605123143 -0.35060757278179261 0.17031775762574217 -0.10842757668501987 -0.23631272207058615 -0.87441124115848534 -0.18235343542781732 -0.95522993037734205 0.084509520779192701 -0.33590679365185799 1.1819337546560027 -0.0093733369806559951 0.23313025756354386 -1.4000124549839932 0.82709463223800761 -1.3393822689079808 2.9520467592259281 1.6574077361537636 -0.64006289843115471 2.9285201327284045 -1.9873456738535884 -1.1436998587112976
decision_type=2 2 2 2 2 2 2 2 2 2 2 2 2 2 2 2 2 2 2 2 2 2 2 2 2 2 2 2 2 2
left_child=1 7 18 6 5 17 -4 -1 -6 10 13 -12 -10 -2 15 -8 -13 -5 22 -9 -7 -15 26 -23 27 -25 -3 28 29 -11
right_child=9 2 3 4 8 20 14 19 12 24 11 16 -14 21 -16 -17 -18 -19 -20 -21 -22 23 -24 25 -26 -27 -28 -29 -30 -31
leaf_value=0.20697193716091361 0.053204332323534526 0.161729237828106 -0.14456541305567538 -0.030276364218443506 -0.11931122000615799 0.069726553514134315 0.15709752374364974 0.20973063833974337 -0.03027636421844352 0.11372783731646861 0.1963969159753996 0.000200715471484968 -0.19028103259056808 0.089727137060649914 0.20245769886828313 -0.050276947764959071 -0.17489596832401766 -0.19028103259056808 0.0763934146963062 0.12917818987145863 0.20103473244995396 0.13353793911492212 0.12972830415368106 0.20784823047654188 0.13700124362514127 0.16267044175970671 0.20973063833974337 0.15972917947345441 0.20755666186729602 0.20412299809305676
leaf_weight=108.74682381749153 5.7498320639133444 6.2498174607753745 8.7497444450855237 4.9998539686203012 46.498641908168793 4.9998539686203012 9.4997225403785688 10.749686032533644 4.9998539686202994 6.2498174607753745 14.999561905860903 5.2498466670513135 820.22604355216026 4.9998539686202994 13.749598413705826 4.9998539686203012 6.4998101592063904 10.499693334102631 5.2498466670513144 254.49256700277328 11.499664127826691 5.2498466670513144 4.9998539686202994 106.24689683318138 5.4998393654823294 8.4997517466545087 61.498203814029694 5.9998247623443595 321.99059557914734 53.498437464237213
leaf_count=435 23 25 35 20 186 20 38 43 20 25 60 21 3281 20 55 20 26 42 21 1018 46 21 20 425 22 34 246 24 1288 214
internal_value=0 -0.724881 -1.51711 -1.79295 -1.89246 0.0516963 0.637862 1.43309 -1.96383 1.8331 1.58924 0.568651 -2.00117 1.79804 1.31667 0.747837 -1.07467 -1.49472 1.80976 1.21637 1.50439 1.86125 1.89303 1.90592 1.93076 1.93696 1.94497 1.94025 1.94734 1.83862
internal_weight=0 1392.71 1018.72 940.723 903.724 31.9991 36.9989 373.989 871.725 550.734 157.495 26.7492 825.226 130.746 28.2492 14.4996 11.7497 15.4995 77.9977 265.242 16.4995 124.996 72.7479 119.996 393.239 114.747 67.748 387.739 381.739 59.7483
internal_count=7774 5571 4075 3763 3615 128 148 1496 3487 2203 630 107 3301 523 113 58 47 62 312 1061 66 500 291 480 1573 459 271 1551 1527 239
shrinkage=1


Tree=1
num_leaves=31
num_cat=0
split_feature=18 0 38 20 15 13 51 9 0 1 34 5 13 27 58 11 6 4 47 2 21 8 48 60 8 8 21 17 22 36
split_gain=2113.17 1945.24 764.31 186.218 104.228 44.8985 43.1021 35.9103 25.9038 12.1179 11.707 77.7066 19.0062 7.97833 12.2706 6.78109 6.24568 5.60087 3.50542 2.40043 2.23731 1.66331 6.28069 1.47586 8.13114 1.63911 1.27506 1.10708 0.916697 0.850791
threshold=-0.26040591850552192 -1.1747846122738699 0.1096463264301024 -0.42946017641295325 -0.068856237232155879 0.4343341644814272 -0.015097576646015047 0.11928929520778209 -1.035781605123143 -0.60551008903538017 -0.32286166732204391 0.99036369853044393 1.6574077361537636 -0.18235343542781732 -0.37456284324612582 1.4605533661071763 1.1819337546560027 -0.0093733369806559951 1.8568041840262561 0.86471162829202108 0.82709463223800761 -0.33315325322068995 0.55219742795937876 -1.9873456738535884 -1.1968076777867214 -0.43215082542308508 0.50406421263110313 -0.64006289843115471 -0.41232798835769491 -3.9316166032064248
decision_type=2 2 2 2 2 2 2 2 2 2 2 2 2 2 2 2 2 2 2 2 2 2 2 2 2 2 2 2 2 2
left_child=1 7 16 5 6 -4 8 -1 -5 -6 11 12 15 14 -7 18 20 -9 19 21 27 22 -2 24 -12 -26 -10 -3 -23 -25
right_child=10 2 3 4 9 13 -8 17 26 -11 23 -13 -14 -15 -16 -17 -18 -19 -20 -21 -22 28 -24 29 25 -27 -28 -29 -30 -31
leaf_value=0.17851597767071584 0.053147504702943153 0.13675258479054306 -0.1405862814537697 -0.10674446851084735 0.18684021728555722 0.13461934842058437 0.052210257641903339 0.18108026085951448 -0.18267439365276997 -0.012141944014281602 0.049280294033483163 -0.19444040801138268 -0.0098082635084059053 0.17432459201412889 -0.059216894414821336 0.066216341881956284 0.059117209050861791 0.10699513410319893 0.088131651019598328 0.11404924551704734 0.10749634430860776 0.14547379885843634 0.18399718759331718 0.14941295055220319 0.18171685819916916 0.12090903862051637 -0.14518547817574065 0.18108026085951448 0.18003268702770789 0.18075400124559277
leaf_weight=107.59362325072289 5.2108672112226513 6.2093082815408698 8.7044418603181821 48.067345604300499 7.9390791207551956 9.447138845920561 8.2014005333185178 10.632646650075911 817.62389500439167 4.980578884482382 5.7299407124519339 6.461665913462638 6.4596752077341071 13.610057011246681 4.9913285970687875 6.6885865181684485 5.2423477470874777 253.44123780727386 5.2003479450941077 6.941892907023429 4.9790221452713004 8.1695710867643339 12.391395568847654 8.920271694660185 42.562299251556396 4.9482768774032584 9.1742574870586378 60.828629672527313 126.9147512614727 298.64392712712288
leaf_count=435 21 25 35 193 32 38 33 43 3300 20 23 26 26 55 20 27 21 1018 21 28 20 33 50 36 172 20 37 246 513 1207
internal_value=0 -0.657808 -1.37759 -1.62795 -1.71845 0.578195 -1.7597 1.29819 -1.78109 1.10132 1.66708 1.46213 1.58581 1.19392 0.676108 1.64923 1.645 1.09978 1.68928 1.7156 1.72171 1.74175 1.45261 1.77184 1.61812 1.75384 -1.82258 1.76974 1.77943 1.79845
internal_weight=0 1381.67 1010 932.74 895.987 36.753 883.067 371.668 874.865 12.9197 545.243 184.439 177.977 28.0485 14.4385 171.517 77.2593 264.074 164.829 159.628 72.017 152.687 17.6023 360.805 53.2405 47.5106 826.798 67.0379 135.084 307.564
internal_count=7774 5571 4075 3763 3615 148 3563 1496 3530 52 2203 745 719 113 58 693 312 1061 666 645 291 617 71 1458 215 192 3337 271 546 1243
shrinkage=0.1


Tree=2
num_leaves=31
num_cat=0
split_feature=18 0 38 20 19 49 13 9 0 29 2 22 20 13 22 3 27 58 27 8 4 30 18 20 56 11 7 33 8 7
split_gain=1757.01 1613.4 635.477 155.425 89.8859 52.9336 37.0335 31.6807 15.7224 10.2631 27.583 34.1926 19.2351 14.7893 9.62292 7.31968 6.83078 10.0901 5.44567 5.43998 4.92146 4.37351 3.86919 2.70574 1.85355 6.09993 2.37798 1.20791 0.770507 0.75422
threshold=-0.26040591850552192 -1.1747846122738699 0.1096463264301024 -0.42946017641295325 1.0000000180025095e-35 -0.3539432298022866 0.4343341644814272 0.11928929520778209 -1.035781605123143 0.38582073146563728 0.036539867982526356 -0.17563549112483379 -1.0000000180025095e-35 1.6574077361537636 -0.23631272207058615 -0.63541705008342431 -0.18235343542781732 -0.37456284324612582 -1.5288274936042716 -0.80295636933050241 -0.0093733369806559951 0.23313025756354386 -0.50376283439178471 -2.2127674317418493 1.392225030078335 -1.0086776285272945 -0.35519477255321991 0.36203886287326903 3.1052714138708599 -1.8173750873785453
decision_type=2 2 2 2 2 2 2 2 2 2 2 2 2 2 2 2 2 2 2 2 2 2 2 2 2 2 2 2 2 2
left_child=1 7 18 6 5 15 -4 29 -6 24 13 27 -13 19 -10 -5 17 -8 -3 -11 -9 -7 -20 -21 -2 -26 -27 -12 -25 -1
right_child=9 2 3 4 8 21 16 20 14 10 11 12 -14 -15 -16 -17 -18 -19 22 23 -22 -23 -24 28 25 26 -28 -29 -30 -31
leaf_value=0.12650737185893846 0.16802505200107737 0.049318160907869148 -0.12854014808857231 -0.0263829557776812 -0.10788913242322068 0.055171005237723718 0.12289318146208882 0.16765080326546219 -0.029420968360950841 0.054332860988988707 0.11032790090399563 0.045710774818919948 -0.17554247847981286 -0.0093481861411149839 -0.16894004243754554 -0.17486375120919678 0.1610726260139177 -0.053358494364651066 0.074899724383523797 0.087922578188891931 0.09728581787070556 0.16773965474642788 0.16530568064595721 0.16575665213438784 0.049453370288994394 0.094980296659151253 0.16511248063877615 0.16984702232605409 0.13545345935979566 0.16701176555264069
leaf_weight=4.8187541961669913 274.34739635884762 4.8581425547599784 8.5745140910148603 4.9111908078193656 45.910970628261566 4.9817055761814126 9.3199231028556806 10.349756836891173 4.9745922684669486 4.892009735107421 4.8260969817638424 8.7796084433794004 7.1124642342329016 5.4575480967760077 792.47855265438557 10.248133525252344 13.273314610123634 4.9856436252594003 5.1026559919118872 4.8412112742662421 250.98387375473976 11.235526755452156 65.518556520342827 137.51634509861469 5.6035965830087653 5.3215048909187308 52.855468541383743 11.618267610669134 8.9359753727912885 99.989149570465088
leaf_count=20 1137 20 35 20 186 20 38 43 20 20 20 36 29 22 3281 42 55 20 21 20 1018 46 271 570 23 22 219 48 37 415
internal_value=0 -0.605645 -1.27108 -1.50213 -1.58611 0.0758178 0.529723 1.18701 -1.64794 1.53936 1.356 0.512909 -0.533107 1.52466 -1.6807 -1.2676 1.09406 0.614676 1.51729 1.5812 1.00073 1.3316 1.58774 1.61476 1.64455 1.491 1.58697 1.52379 1.63908 1.65149
internal_weight=0 1352.51 986.373 910.894 874.741 31.3766 36.1534 366.142 843.364 532.107 193.98 32.3364 15.8921 161.643 797.453 15.1593 27.5789 14.3056 75.4794 156.186 261.334 16.2172 70.6212 151.294 338.128 63.7806 58.177 16.4444 146.452 104.808
internal_count=7774 5571 4075 3763 3615 128 148 1496 3487 2203 802 133 65 669 3301 62 113 58 312 647 1061 66 292 627 1401 264 241 68 607 435
shrinkage=0.1


Tree=3
num_leaves=31
num_cat=0
split_feature=18 0 38 20 15 48 13 9 0 34 5 13 9 28 3 11 6 4 47 21 8 9 3 8 13 17 19 18 5 7
split_gain=1478.54 1353.63 535.146 131.721 77.1235 31.997 30.8075 28.9674 23.0993 9.11543 56.6698 13.9282 8.62628 6.35008 16.8655 5.96169 5.54265 4.47353 3.04519 2.09723 2.05807 2.03064 1.39613 3.1292 1.35644 1.11359 0.827633 2.41351 0.820553 4.18848
threshold=-0.26040591850552192 -1.1747846122738699 0.1096463264301024 -0.42946017641295325 -0.068856237232155879 -0.057031115272538353 0.4343341644814272 0.11928929520778209 -1.035781605123143 -0.32286166732204391 0.99036369853044393 1.6574077361537636 -0.69062667407760991 -0.22424322075288594 0.077662987454062762 1.4605533661071763 1.1819337546560027 -0.0093733369806559951 1.8568041840262561 0.82709463223800761 -0.87441124115848534 0.75846154594372883 -1.6975986901243363 -1.1123041876992585 -1.877606930245153 -0.64006289843115471 -0.145040217654542 -0.44874819111533176 0.030921421728382689 0.43126589597110937
decision_type=2 2 2 2 2 2 2 2 2 2 2 2 2 2 2 2 2 2 2 2 2 2 2 2 2 2 2 2 2 2
left_child=1 7 16 6 5 8 -4 -1 -5 10 11 15 -6 21 -15 18 19 -9 20 25 -2 -8 23 -11 -22 -3 27 -10 -26 -30
right_child=9 2 3 4 12 -7 13 17 26 22 -12 -13 -14 14 -16 -17 -18 -19 -20 -21 24 -23 -24 -25 28 -27 -28 -29 29 -31
leaf_value=0.15468831778174746 0.092389832375315881 0.11254233858778551 -0.11842222957384058 -0.085981495565454438 0.16666253606995113 0.063737553506408681 0.16346180007545716 0.15720883871260127 -0.16794074665503866 0.055996985603285636 -0.1709804112110406 -0.0080420290583355387 -0.0030281522865456467 -0.096621326237335534 0.15839996886052701 0.048093007283903755 0.0414050612330428 0.088834005067145658 0.069218319847213425 0.085353683798759822 0.11179846202188676 0.087821658342976061 0.15463894984516119 0.15750317799996127 0.15743740640689133 0.15806973506612079 -0.15828895840581636 -0.078721622588813267 0.15643563537274371 0.061273503388199313
leaf_weight=100.90461306273937 6.2895597517490378 5.9300610423088065 8.3860543370246869 47.426096588373184 7.4681430608034134 6.8215019553899756 11.310333892703058 9.9535427093505842 7.6360335052013397 4.7020570486783972 6.2287319451570502 6.4406651258468619 5.0024343580007535 4.8402581959962863 5.5861637592315674 6.5019101500511161 5.1580922454595557 247.55428883433342 5.0208765417337409 4.8201393485069266 8.3871982097625715 5.1722353994846335 325.71926333010197 8.5765725523233396 105.1293927282095 57.147009074687958 764.52736636996269 5.0288064777851087 25.038402244448665 5.6731360405683509
leaf_count=435 26 25 35 195 31 28 47 43 32 20 26 26 21 20 24 27 21 1018 21 20 36 22 1401 37 452 246 3287 21 107 24
internal_value=0 -0.56376 -1.18723 -1.40332 -1.48248 -1.5195 0.489339 1.09273 -1.53735 1.4378 1.25225 1.36176 0.98593 1.0109 0.400114 1.41908 1.41339 0.914769 1.4583 1.48931 1.48385 1.39726 1.53343 1.21559 1.50827 1.5379 -1.57869 -1.32515 1.53237 1.38857
internal_weight=0 1310.67 952.261 879.205 843.91 831.44 35.295 358.412 824.618 513.708 174.71 168.481 12.4706 26.909 10.4264 162.04 73.0553 257.508 155.539 67.8972 150.518 16.4826 338.998 13.2786 144.228 63.0771 777.192 12.6648 135.841 30.7115
internal_count=7774 5571 4075 3763 3615 3563 148 1496 3535 2203 745 719 52 113 44 693 312 1061 666 291 645 69 1458 57 619 271 3340 53 583 131
shrinkage=0.1


Tree=4
num_leaves=31
num_cat=0
split_feature=18 0 38 27 22 48 27 19 9 0 29 2 22 15 13 25 6 8 4 20 60 8 21 12 17 8 32 13 14 5
split_gain=1255.63 1145.32 454.944 116.239 108.16 39.9423 35.9776 29.0374 27.1443 14.3573 8.8378 21.9443 26.0684 15.3145 11.2745 7.71377 5.03135 4.93318 4.16208 2.53937 1.97305 9.25475 1.96966 1.17479 1.0658 1.05761 0.842531 0.82073 0.791399 2.43672
threshold=-0.26040591850552192 -1.1747846122738699 0.1096463264301024 -0.18235343542781732 -0.17563549112483379 -0.26701137909066947 1.2415587362412832 2.0559121541152501 0.11928929520778209 -1.035781605123143 0.38582073146563728 0.036539867982526356 -0.17563549112483379 -0.16804696293375479 1.6574077361537636 -0.78376578538333164 1.1819337546560027 -0.80295636933050241 -0.0093733369806559951 -2.2127674317418493 -1.9873456738535884 -1.1436998587112976 0.82709463223800761 0.23812191179982281 -0.64006289843115471 -0.29742021587128281 -0.2364618339922315 -1.8062681980316222 -0.38648888301233419 -0.70881636910853763
decision_type=2 2 2 2 2 2 2 2 2 2 2 2 2 2 2 2 2 2 2 2 2 2 2 2 2 2 2 2 2 2
left_child=1 8 16 4 5 -4 -5 9 27 -6 20 14 23 -14 17 -7 22 -12 -10 -19 21 -2 24 -13 -3 -23 -17 -1 29 -21
right_child=10 2 3 6 7 15 -8 -9 18 -11 11 12 13 -15 -16 26 -18 19 -20 28 -22 25 -24 -25 -26 -27 -28 -29 -30 -31
leaf_value=0.10422343888690702 0.019936398199911661 0.1043652136894918 -0.16258774528342665 0.15815842620626266 -0.091566955410581186 0.033407950109260849 -0.12368089780105905 0.078100867799803603 0.14888640928786412 -0.15004023207862219 0.03858355626906626 0.090212051117581404 -0.16602892663612176 0.035985131456364429 -0.0076343867642477622 0.13933904635823133 0.037492810271963398 0.069202940521890688 0.081359239247653092 0.062817210587592598 0.1493427627758227 0.14979362006837424 0.078274632615279963 0.15109832145670607 0.14958356880018678 0.10534781008404555 0.19166370771226335 0.14830857465401243 0.14916249993341399 0.14223191729663265
leaf_weight=4.4264794737100592 6.8748497515916815 5.7639082372188559 5.8858696073293713 17.651177957654003 44.508846133947372 5.385991364717488 6.0926364660263053 5.7865267544984809 9.4830169677734357 742.30832780897617 4.7357020378112784 4.4961425662040737 6.6339885145425788 8.6401205956935865 5.4448844492435446 4.59705470502377 5.1282970011234275 4.5877761989831916 243.48256880044937 4.4855431467294684 257.22707843780518 41.466444239020348 4.7349658608436576 10.735924944281576 54.486282616853714 6.1475541591644278 9.3086270689964206 91.844231873750687 102.4474491328001 27.870495826005936
leaf_count=20 29 25 25 77 186 23 26 25 43 3343 20 20 28 37 22 20 21 20 1018 20 1158 187 20 48 246 27 38 415 461 126
internal_value=0 -0.528959 -1.11886 -1.32276 -1.38609 0.654409 0.858388 -1.45091 1.01089 -1.46733 1.35492 1.17855 0.40558 -0.517554 1.3362 1.35012 1.32852 1.38956 0.838907 1.42367 1.45681 1.28395 1.40377 1.33126 1.45258 1.44055 1.74366 1.46282 1.44856 1.31223
internal_weight=0 1260.87 911.639 841.525 817.781 25.1775 23.7438 792.604 349.236 786.817 491.794 180.078 30.5062 15.2741 149.572 19.2917 70.1135 144.127 252.966 139.391 311.716 54.4888 64.9852 15.2321 60.2502 47.614 13.9057 96.2707 134.803 32.356
internal_count=7774 5571 4075 3763 3660 106 103 3554 1496 3529 2203 802 133 65 669 81 312 647 1061 627 1401 243 291 68 271 214 58 435 607 146
shrinkage=0.1


Tree=5
num_leaves=31
num_cat=0
split_feature=18 0 38 27 22 48 27 9 19 0 29 2 37 27 8 25 13 27 4 18 20 60 8 5 25 8 8 4 7 4
split_gain=1074.37 976.235 389.989 99.9843 93.6028 33.4072 30.5771 25.8654 25.2477 14.1961 8.13443 19.3394 22.5414 22.7264 10.4486 6.60758 5.32651 5.15152 3.93322 3.69583 2.39539 1.89117 8.41485 1.50498 1.49331 1.02735 0.813561 0.794512 0.787838 0.689941
threshold=-0.26040591850552192 -1.1747846122738699 0.1096463264301024 -0.18235343542781732 -0.17563549112483379 -0.26701137909066947 1.2415587362412832 0.11928929520778209 2.0559121541152501 -1.035781605123143 0.38582073146563728 0.036539867982526356 -0.27513613286430377 -0.22041858379810408 -0.82144580486855168 -0.78376578538333164 1.224646644173202 -1.5288274936042716 -0.0093733369806559951 -0.50376283439178471 -2.2127674317418493 -1.9873456738535884 -1.1436998587112976 1.580246887012924 -1.0000000180025095e-35 -0.29742021587128281 3.1052714138708599 -2.5760197204596045 -1.8173750873785453 1.1614704583167963
decision_type=2 2 2 2 2 2 2 2 2 2 2 2 2 2 2 2 2 2 2 2 2 2 2 2 2 2 2 2 2 2
left_child=1 7 17 4 5 -4 -5 28 9 -6 21 14 13 -13 -12 -7 20 -3 -9 -19 -16 22 -2 -15 -14 -24 27 -22 -1 -21
right_child=10 2 3 6 8 15 -8 18 -10 -11 11 12 24 23 16 -17 -18 19 -20 29 26 -23 25 -25 -26 -27 -28 -29 -30 -31
leaf_value=0.097386971475233064 0.018025653824602594 0.022492532347934455 -0.15326047948791721 0.14979576530410885 -0.08424838924628443 0.030227514289159076 -0.11332852837178616 0.14212381523127746 0.070853788674893878 -0.14306188776180392 -0.018967318847083664 0.13110538550678161 0.079675676179002897 -0.17053708464477968 0.063646221861161409 0.16142042906403004 0.029293573225886133 0.047942409705705132 0.074664749728605137 0.14524382736057592 0.097489027285021068 0.14235490068129697 0.14287240160325634 -0.092418729802971791 0.14674896232646445 0.098257226227043831 0.10681906495375421 0.14151010149302165 0.14144607609756171 0.11682188986194603
leaf_weight=4.2572529166936866 6.8448807299137107 4.5112633705139151 5.6325857043266323 16.815719321370128 43.58646896481514 5.3588938713073775 5.9895601123571387 8.9673151522874814 5.7428308129310599 702.6999152302742 4.7668026685714713 4.6982240974903098 4.986495018005372 5.5195870250463503 4.4944861233234397 13.536050736904141 4.90537105500698 4.7062692791223517 239.01911464333534 47.237523555755615 4.2499356865882865 243.57013119757175 39.241963133215904 4.4580533057451248 9.9281177371740306 5.9428329169750205 7.8945010006427756 116.17956168949604 86.933145508170128 10.426031798124312
leaf_count=20 29 20 25 77 186 23 26 43 25 3343 20 21 23 23 20 58 20 21 1018 222 20 1158 187 20 46 27 37 552 415 49
internal_value=0 -0.499686 -1.06281 -1.25689 -1.3175 0.604924 0.80689 0.938499 -1.3802 -1.39627 1.28596 1.1131 0.377454 -0.502416 1.26587 1.24212 1.31625 1.25686 0.771041 1.33151 1.35405 1.38658 1.21352 -1.35633 1.24324 1.37004 1.37918 1.39957 1.39389 1.40105
internal_weight=0 1205.42 866.243 799.362 776.557 24.5275 22.8053 339.177 752.029 746.286 467.681 172.081 29.5905 14.6759 142.491 18.8949 137.724 66.8811 247.986 62.3698 132.818 295.6 52.0297 9.97764 14.9146 45.1848 128.324 120.429 91.1904 57.6636
internal_count=7774 5571 4075 3763 3660 106 103 1496 3554 3529 2203 802 133 64 669 81 649 312 1061 292 629 1401 243 43 69 214 609 572 435 271
shrinkage=0.1


Tree=6
num_leaves=31
num_cat=0
split_feature=18 0 38 20 19 49 9 13 0 29 2 0 6 13 37 23 16 6 10 10 20 4 30 21 60 7 20 47 8 17
split_gain=924.855 836.873 336.434 89.2258 51.7644 29.32 24.9178 19.7261 13.7853 7.56829 17.0391 20.049 15.744 9.5303 6.08368 5.63689 4.85426 4.84308 4.82779 6.13065 4.50918 3.75457 3.40989 2.05152 1.85018 7.77124 1.62041 1.98847 1.58739 1.19274
threshold=-0.26040591850552192 -1.1747846122738699 0.1096463264301024 -0.42946017641295325 1.0000000180025095e-35 -0.3539432298022866 0.11928929520778209 0.4343341644814272 -1.035781605123143 0.38582073146563728 0.036539867982526356 1.0492635021377625 -0.2360028319955095 1.6574077361537636 -0.25698189305231139 -0.32221708446644209 -2.0016785601774973 1.1819337546560027 0.67142416742387212 0.2401591666722995 -2.1906283442955901 -0.0093733369806559951 0.23313025756354386 0.82709463223800761 -1.9873456738535884 -0.39400768135417924 -0.42946017641295325 1.2016890561724096 -0.79552635309737307 -0.64006289843115471
decision_type=2 2 2 2 2 2 2 2 2 2 2 2 2 2 2 2 2 2 2 2 2 2 2 2 2 2 2 2 2 2
left_child=1 6 17 7 5 16 -1 -4 -6 24 13 12 -12 20 -13 -10 -5 23 19 -9 -11 -8 -7 29 25 -2 -27 -28 -22 -3
right_child=9 2 3 4 8 22 21 18 15 10 11 14 -14 -15 -16 -17 -18 -19 -20 -21 28 -23 -24 -25 -26 26 27 -29 -30 -31
leaf_value=0.1336406773449379 -0.013236047199682298 0.087809899940017505 -0.097820013815149126 -0.017745174532484677 -0.077662418991652216 0.034346555029409136 0.13654298559422748 0.0088896512270772148 -0.028293767469620014 0.033706920949122178 -0.17641512878887708 -0.00091007456505834926 0.068679540063388653 -0.0091425956327557938 0.13434542732888421 -0.13717138706920171 -0.14524784361742857 0.024832953909896448 0.0067298433062455698 0.14311523545854338 0.071961753545986967 0.068609221521099689 0.13829582847629493 0.062372189342111008 0.13658155530819299 0.13754204871372575 0.13693392773588112 0.04743690578750507 0.13193709593822972 0.13770156815626425
leaf_weight=85.876752465963364 4.2979481220245352 5.3135903030633918 7.6128525882959357 4.5654888302087775 42.606514245271683 4.6469557583332035 8.4281785488128644 4.4681046009063783 4.7903008162975302 5.0900706201791754 6.1810327619314194 4.4301288425922438 4.5503052920103091 5.4401749074459067 13.336880952119824 647.59128022193909 8.6306624859571475 4.9945392310619345 5.8029422014951697 14.271990269422529 4.5815177410840979 234.35287618637085 9.8337324559688568 4.4782591462135306 229.21786168217659 35.226922079920769 4.9235558658838254 5.0074572563171387 120.00107945501804 48.786690533161163
leaf_count=435 20 25 35 21 186 20 43 20 21 23 27 20 21 22 65 3280 41 21 27 66 20 1018 46 20 1158 174 25 24 604 246
internal_value=0 -0.474431 -1.01572 -1.20179 -1.27432 0.0668323 0.873437 0.428109 -1.32773 1.22774 1.05701 0.354337 -0.7249 1.20522 1.0062 -1.36372 -1.01136 1.19358 0.864323 1.11113 1.25962 0.709676 1.04938 1.27417 1.32797 1.15255 1.27484 0.918074 1.29732 1.32801
internal_weight=0 1147.05 818.394 754.821 722.665 27.6768 328.658 32.1559 694.988 442.285 163.611 28.4983 10.7313 135.113 17.767 652.382 13.1962 63.5731 24.543 18.7401 129.673 242.781 14.4807 58.5785 278.674 49.4559 45.1579 9.93101 124.583 54.1003
internal_count=7774 5571 4075 3763 3615 128 1496 148 3487 2203 802 133 48 669 85 3301 62 312 113 86 647 1061 66 291 1401 243 223 49 624 271
shrinkage=0.1


Tree=7
num_leaves=31
num_cat=0
split_feature=18 0 38 20 19 49 9 31 49 0 40 5 47 17 13 22 27 8 13 18 4 30 13 7 25 5 47 13 53 4
split_gain=799.476 720.265 291.522 78.5312 45.9406 24.8203 24.158 16.705 24.6189 13.9743 7.15235 15.3674 26.6309 9.38433 5.98794 5.49461 4.96064 4.87504 4.87351 3.64392 3.60588 3.12734 3.05591 3.6574 2.94015 1.98032 1.19372 0.905268 0.868874 1.128
threshold=-0.26040591850552192 -1.1747846122738699 0.1096463264301024 -0.42946017641295325 1.0000000180025095e-35 -0.3539432298022866 0.11928929520778209 0.20150941797023694 1.0000000180025095e-35 -1.035781605123143 -0.35060757278179261 0.14338113698193616 -0.10842757668501987 -1.0342183319626381 -0.23662123802976159 -0.23631272207058615 -1.5288274936042716 -0.87441124115848534 0.68469142333632993 -0.50376283439178471 -0.0093733369806559951 0.23313025756354386 -0.54370838209932437 -1.4085494319416958 -0.79226771955181985 2.9520467592259281 2.9285201327284045 -1.8062681980316222 4.9432075690208226 2.8394519068738169
decision_type=2 2 2 2 2 2 2 2 2 2 2 2 2 2 2 2 2 2 2 2 2 2 2 2 2 2 2 2 2 2
left_child=1 6 16 7 5 18 27 24 -9 -6 11 13 -13 -2 -14 -11 -3 -15 -5 -18 -8 -7 23 -19 -4 26 28 -1 29 -12
right_child=10 2 3 4 9 21 20 8 -10 15 25 12 14 17 -16 -17 19 22 -20 -21 -22 -23 -24 -25 -26 -27 -28 -29 -30 -31
leaf_value=0.080990968865806437 -0.026632699699932968 0.010533255830170063 0.068620900318636435 -0.13943238438454644 -0.071675065929969833 0.031071488733794273 0.13187896615754222 -0.14741826961065127 0.11258093232498492 -0.023019734287832064 0.12957037683438796 0.1236528646045853 -0.0014181407619039952 0.01790841504827333 -0.15404110554494199 -0.13240220037969144 0.035091253470967136 0.13477433903765226 -0.0085099737181377894 0.12940552883014558 0.063089291649719742 0.13165583004616588 0.13179261389588892 -0.00011756906875184815 0.1537396968038571 0.059599245072696296 0.077615443623460567 0.13111670140558307 0.080146397400093994 0.085260954079855442
leaf_weight=3.7804811149835578 4.5029244273900977 4.3093552887439719 8.3368581235408801 8.3777237236499804 41.602634936571121 4.6243195086717579 7.8817309886217108 8.5431065112352353 6.347955346107482 4.6274830549955359 275.18686932325363 12.360777184367182 4.3285320848226547 4.3673983365297309 6.3296777755022031 606.08569692075253 4.4513562172651282 4.0133187174797058 4.3039135783910742 51.388749182224274 229.625004529953 9.3231247067451477 82.726632162928581 4.0267928242683393 7.9067953079938915 4.402428224682807 4.7797043174505225 76.714091122150421 3.7431648820638648 5.8678482025861731
leaf_count=20 22 20 38 42 186 20 43 40 32 20 1476 64 20 20 29 3281 21 21 20 271 1018 46 434 20 38 22 24 415 20 31
internal_value=0 -0.451959 -0.974705 -1.15376 -1.22498 0.0624791 0.814179 0.399207 -0.365824 -1.27753 1.17701 0.974167 0.23775 1.1443 -0.920576 -1.31573 1.13909 1.21107 -0.949997 1.21887 0.653721 0.983068 1.26072 0.672154 1.10054 1.26164 1.27176 1.28763 1.28008 1.28645
internal_weight=0 1088.23 770.229 710.08 678.945 26.6291 318.001 31.1347 14.8911 652.316 416.636 122.656 23.019 99.6371 10.6582 610.713 60.1495 95.1341 12.6816 55.8401 237.507 13.9474 90.7667 8.04011 16.2437 293.98 289.578 80.4946 284.798 281.055
internal_count=7774 5571 4075 3763 3615 128 1496 148 72 3487 2203 630 113 517 49 3301 312 495 62 292 1061 66 475 41 76 1573 1551 435 1527 1507
shrinkage=0.1


Tree=8
num_leaves=31
num_cat=0
split_feature=18 0 38 20 51 15 9 0 13 7 29 8 2 15 48 13 6 27 14 30 21 60 8 80 8 17 8 11 7 14
split_gain=693.212 622.419 253.729 69.0708 42.258 24.0972 23.5085 19.0087 14.273 7.95352 7.05977 15.1099 13.9116 15.9581 23.579 4.83541 4.75185 4.44118 5.58764 3.48114 2.16741 2.13025 8.68526 1.68895 1.52048 1.34144 1.22239 1.06779 0.910651 0.704454
threshold=-0.26040591850552192 -1.1747846122738699 0.1096463264301024 -0.42946017641295325 -0.015097576646015047 0.37292090102513809 0.11928929520778209 -1.035781605123143 0.4343341644814272 0.086795296657688217 0.38582073146563728 -0.83751056342996122 -0.052824043964869068 0.060453315504428728 -0.27723198485680695 1.224646644173202 1.1819337546560027 -0.18235343542781732 -0.77667941849258382 0.23457390764315819 0.82709463223800761 -1.9873456738535884 -1.1436998587112976 1.0000000180025095e-35 -0.0076603096570510756 -0.64006289843115471 -0.29742021587128281 1.0000000180025095e-35 -1.8173750873785453 -1.2549499372751669
decision_type=2 2 2 2 2 2 2 2 2 2 2 2 2 2 2 2 2 2 2 2 2 2 2 2 2 2 2 2 2 2
left_child=1 6 16 8 5 7 28 -5 -4 -6 21 -12 15 14 -14 23 20 18 -10 -8 25 22 -2 29 -16 -3 -24 -15 -1 -13
right_child=10 2 3 4 9 -7 19 -9 17 -11 11 12 13 27 24 -17 -18 -19 -20 -21 -22 -23 26 -25 -26 -27 -28 -29 -30 -31
leaf_value=0.075579819492920808 -0.0040690330854768709 0.073924347824744704 -0.087043387043926515 -0.058478064495436681 -0.036059867965346049 0.10415860880488255 0.058044641181750171 -0.12806010985817687 0.085590760970096658 0.14246985728983133 -0.081777902668467656 0.081662423100951662 0.12346624329731562 0.13529031743344652 -0.089059060601567708 0.019105672606872282 0.014202806446122993 0.12503199791003014 -0.054236223959254093 0.12858980355308286 0.048931373792727981 0.12790153594032291 0.12909020521887229 0.059796267334333048 -0.17086774660081139 0.12942800881308478 0.076689489071268213 0.072912687265407727 0.12705393611394397 0.12580093570309089
leaf_weight=3.610400676727294 6.4010817706584922 4.8460759818553916 7.0126857012510326 42.122886553406715 3.9112121015787107 4.691505253314971 225.06001569330692 577.82076720893383 8.0881879925727862 6.893510639667511 4.6407698094844809 3.750936582684516 5.9430348724126807 9.807526767253874 4.2778199315071097 4.7976340502500525 4.8465686887502661 10.225623473525042 4.4194832891225841 7.2193750739097586 4.2077624499797812 200.8290009945631 32.529659792780876 4.2358298599719992 4.844847813248637 42.916175842285156 5.1576612889766684 3.8105171769857398 71.543396756052971 100.44354341924191
leaf_count=20 29 25 35 193 20 24 1019 3346 38 32 20 20 32 52 21 20 21 55 20 42 20 1158 187 24 22 246 27 20 415 571
internal_value=0 -0.43195 -0.939347 -1.1126 -1.18232 -1.21624 0.759665 -1.23332 0.376757 0.778437 1.13144 0.957834 1.0159 0.393831 -0.315314 1.17349 1.08903 0.761486 0.36184 0.602372 1.17735 1.23532 1.03627 1.21696 -1.32506 1.23796 1.21919 1.17836 1.24581 1.24212
internal_weight=0 1029.44 722.002 665.186 635.44 624.635 307.433 619.944 29.746 10.8047 391.47 146.552 141.912 28.6837 15.0657 113.228 56.8166 22.7333 12.5077 232.279 51.97 244.917 44.0884 108.43 9.12267 47.7623 37.6873 13.618 75.1538 104.194
internal_count=7774 5571 4075 3763 3615 3563 1496 3539 148 52 2203 802 782 147 75 635 312 113 58 1061 291 1401 243 615 43 271 214 72 435 591
shrinkage=0.1


Tree=9
num_leaves=31
num_cat=0
split_feature=18 0 36 20 15 1 0 31 49 0 21 3 29 8 2 22 15 4 13 25 20 56 7 11 7 8 4 7 16 14
split_gain=603.514 542.471 180.127 65.5409 39.782 38.3355 48.8133 13.6423 19.0234 9.26531 9.13971 7.07863 6.70241 13.1557 12.4961 14.2764 8.22549 5.17435 4.49694 2.85668 2.4024 2.20261 6.61556 2.73075 1.98939 1.03927 0.979494 0.910017 0.785885 0.665016
threshold=-0.26040591850552192 -1.035781605123143 0.1203468240902963 -0.42946017641295325 -0.068856237232155879 0.26663891331279516 -1.1747846122738699 0.20150941797023694 1.0000000180025095e-35 0.35424846638412716 -0.31384467103004166 0.0031022640908656535 0.38582073146563728 -0.83751056342996122 0.036539867982526356 -0.17563549112483379 -0.16804696293375479 1.6472577297611573 1.224646644173202 -0.79226771955181985 -2.2127674317418493 1.392225030078335 -0.35519477255321991 -1.0086776285272945 0.23363390744457818 3.1052714138708599 -2.5760197204596045 -1.8173750873785453 -0.83112733802607985 -0.43570187896497553
decision_type=2 2 2 2 2 2 2 2 2 2 2 2 2 2 2 2 2 2 2 2 2 2 2 2 2 2 2 2 2 2
left_child=1 5 9 7 10 27 11 19 -9 -3 -5 -7 21 -14 18 29 -17 -6 20 -4 -15 -2 -23 -24 -11 26 -22 -1 -25 -16
right_child=12 2 3 4 17 6 -8 8 -10 24 -12 -13 13 14 15 16 -18 -19 -20 -21 25 22 23 28 -26 -27 -28 -29 -30 -31
leaf_value=0.071015511227882577 0.12461302615674559 -0.011783654447372151 0.059312435433590965 0.0080570345721281498 0.00244735975292353 0.053637607649764718 -0.061719704831446912 -0.13894697042752677 0.10155033811729236 0.12573323539422601 -0.12479309636024699 0.12519994141148755 -0.073162241193849467 0.040258057246202378 0.076233939418415511 -0.13304546060047162 0.030174773069101657 0.1452783576520035 0.01723286501437472 0.14630339522932431 0.069240699183641369 -0.01364615546490699 0.031724365706581013 0.076567670120709461 0.046010295815585793 0.079936117836956755 0.12395501115192163 0.12346788193948549 0.12625295940488776 0.12857537730859131
leaf_weight=3.4658827036619178 183.82495522499084 6.427283748984336 7.9704125225543976 5.2292011678218833 4.9083200991153699 219.93755030632019 39.733357340097427 7.8169901967048627 5.678105354309082 33.542149111628532 534.64294749498367 14.749243199825285 4.6669631451368323 3.9914912134408942 3.4771936535835257 5.5013665556907654 7.0368719995021802 5.24852354824543 4.7876673191785803 7.1716222167015093 3.3940848410129538 4.6073398143053046 3.7504371851682654 3.5292248427867881 3.4522191733121863 6.2685998827219001 90.8868587911129 72.448688223958015 32.496608778834343 8.0401436537504214
leaf_count=20 1137 33 38 26 26 1016 186 40 32 199 3334 92 20 20 20 27 35 26 20 38 20 25 20 20 20 37 556 445 199 47
internal_value=0 -0.413481 -0.973982 -1.12138 -1.19818 0.581798 0.407813 0.353542 -0.377569 0.990396 -1.23506 0.58135 1.09264 0.918715 0.976459 0.323937 -0.414409 0.762549 1.12003 1.00513 1.16343 1.19786 0.997919 1.12932 1.18294 1.19364 1.21985 1.21073 1.21386 1.12773
internal_weight=0 972.422 622.088 578.666 550.029 350.335 274.42 28.6371 13.4951 43.4217 539.872 234.687 366.26 138.051 133.384 24.0556 12.5382 10.1568 109.329 15.142 104.541 228.209 44.3836 39.7763 36.9944 100.55 94.2809 75.9146 36.0258 11.5173
internal_count=7774 5571 3812 3560 3412 1759 1294 148 72 252 3360 1108 2203 802 782 129 62 52 653 76 633 1401 264 239 219 613 576 465 219 67
shrinkage=0.1


Tree=10
num_leaves=31
num_cat=0
split_feature=18 0 36 20 56 1 0 15 31 49 17 3 46 40 5 47 17 14 4 25 21 13 60 8 28 8 7 24 9 14
split_gain=526.462 474.076 158.351 58.3838 35.9828 35.7949 40.6084 20.4737 11.5852 16.5043 9.39617 6.82751 6.58988 5.41759 10.5351 17.6666 8.70849 4.06354 2.82658 2.69975 2.34121 2.09589 2.08725 8.28911 1.44827 1.31143 0.909664 0.795046 0.719101 4.72662
threshold=-0.26040591850552192 -1.035781605123143 0.1203468240902963 -0.42946017641295325 -0.031305555748148355 0.26663891331279516 -1.1747846122738699 0.37292090102513809 0.20150941797023694 1.0000000180025095e-35 -0.60116140512290206 0.0031022640908656535 -0.081307865349997607 -0.35060757278179261 0.14338113698193616 -0.10842757668501987 -1.0342183319626381 -0.29301648681237963 -2.0857813098689411 -0.79226771955181985 0.81212389380077832 -1.0652461641575999 -1.9873456738535884 -1.1436998587112976 -0.33947309000353632 -0.29742021587128281 -1.8173750873785453 -0.0423503601588699 -1.81932768304117 -0.37584500867981596
decision_type=2 2 2 2 2 2 2 2 2 2 2 2 2 2 2 2 2 2 2 2 2 2 2 2 2 2 2 2 2 2
left_child=1 5 10 8 -5 26 11 24 19 -10 -3 -7 -2 14 16 -16 -14 -17 -18 -4 -12 -20 23 -15 -6 -25 -1 -23 29 -24
right_child=12 2 3 4 7 6 -8 -9 9 -11 20 -13 13 22 15 17 18 -19 21 -21 -22 27 28 25 -26 -27 -28 -29 -30 -31
leaf_value=0.066680515063322537 -0.027562983367290208 -0.048904351442478351 0.054498794995230519 0.1394362117528328 -0.062022408105397657 0.049316403619928575 -0.056992551603782804 0.094021165981920535 -0.13401988217374847 0.096584260951828538 0.1194998756762079 0.12224013369181386 -0.037174937427841344 -0.011570793640992384 0.11105189392550888 -0.15699008857705343 0.024137384741924207 -0.02167256269441141 0.046590528179531333 0.14092581238571919 0.038758349956119396 0.12150736674504894 -0.0014638858697378146 0.12260186667592668 -0.12187378982632169 0.065509282936302343 0.12023016061992438 0.071287284130281001 0.12267651221555985 0.11842215045901101
leaf_weight=3.3293514549732199 3.6708750277757636 4.0990956723690024 7.8153375089168549 5.4249693602323523 4.0761958658695212 215.52627038955688 38.777476876974106 4.4516549557447425 7.3195345103740674 5.3882623314857483 32.884092941880226 13.652056023478506 4.1832727342844001 6.2164598703384391 10.262709826231005 3.9402214884757996 3.5826782137155524 5.0807851254940015 4.2182658016681662 6.7238306403160113 4.0315437316894522 67.282871454954147 3.6105854958295813 28.006409928202629 496.25023587048054 4.6982770264148703 67.228254109621048 3.3073276281356803 157.18021030724049 36.879277378320694
leaf_count=20 22 20 38 28 21 1016 186 24 40 32 211 92 22 29 64 20 21 26 24 38 21 428 22 187 3339 27 445 20 1049 242
internal_value=0 -0.396593 -0.946632 -1.09117 -1.16733 0.543336 0.376472 -1.19486 0.335063 -0.362409 0.947327 0.536604 1.05701 1.07146 0.878637 0.213135 1.03405 -0.807769 1.10907 0.944681 1.10682 1.15063 1.15447 0.942801 -1.21386 1.144 1.17703 1.19154 1.19615 1.07732
internal_weight=0 916.978 578.465 537.45 510.203 338.513 267.956 504.778 27.247 12.7078 41.0147 229.178 342.12 338.449 101.858 19.2837 82.5744 9.02101 78.3911 14.5392 36.9156 74.8085 236.591 38.9211 500.326 32.7047 70.5576 70.5902 197.67 40.4899
internal_count=7774 5571 3812 3560 3412 1759 1294 3384 148 72 252 1108 2203 2181 625 110 515 46 493 76 232 472 1556 243 3360 214 465 448 1313 264
shrinkage=0.1


Tree=11
num_leaves=31
num_cat=0
split_feature=18 0 36 20 8 9 0 1 4 31 27 0 29 8 48 14 6 11 27 2 5 60 7 47 7 20 16 25 17 37
split_gain=459.724 415.647 139.699 52.235 33.6051 32.2138 21.1032 16.6018 13.1308 9.85454 14.4908 8.65664 6.55986 12.2771 18.4061 5.40081 19.9613 5.03376 4.92765 3.05322 2.62888 2.39616 8.04956 2.3521 2.09953 2.03715 2.4884 1.90058 1.64535 9.39213
threshold=-0.26040591850552192 -1.035781605123143 0.1203468240902963 -0.42946017641295325 -0.25432005273843555 -0.52674048733823553 -1.1747846122738699 0.26663891331279516 0.9679481949463854 0.20150941797023694 0.16022329628053464 0.35424846638412716 0.38582073146563728 -0.24659037703241052 -0.011075208721327461 -0.50966818944521119 -0.30078933587297779 0.10213321750683743 1.0000000180025095e-35 1.1150627239815878 0.4099112148444512 -1.9873456738535884 -0.39400768135417924 -0.095101040191587619 0.23363390744457818 -0.42946017641295325 1.1967271208000649 -0.12096829069131361 -0.34956402662048819 -0.27748893640126854
decision_type=2 2 2 2 2 2 2 2 2 2 2 2 2 2 2 2 2 2 2 2 2 2 2 2 2 2 2 2 2 2
left_child=1 4 11 9 6 8 17 -8 -5 20 -11 -3 21 14 -14 16 -15 -1 -7 28 -4 22 -2 -16 -13 -24 -27 -18 29 -17
right_child=12 2 3 5 -6 18 7 -9 -10 10 -12 24 13 15 23 19 27 -19 -20 -21 -22 -23 25 -25 -26 26 -28 -29 -30 -31
leaf_value=0.044599345967858521 -0.049991168697736205 -0.017007242095903402 0.027154639398764936 -0.12885932489401239 0.1168991821042402 -0.11934285353937471 0.12712770788625746 -0.052602409357063368 0.11143240958791706 -0.13155178204472193 0.090711787402363284 0.11992082789442558 -0.12906243362091205 -0.15631980094733214 0.12899638854841397 0.11848842218782435 0.12218221330192741 0.11971487815358064 -0.016391829332948658 0.02461470957376026 0.11942719812115872 0.11886992804181283 0.11954947177131173 0.023487310800366951 0.034309339599784154 0.0054950406439880787 0.12161712093547505 0.038703850883904468 0.11979777273302361 -0.038536813170196749
leaf_weight=211.93273720145226 3.6684691160917273 6.2480593323707572 4.6146434396505382 3.0736106038093558 62.162550315260887 455.25876013934612 5.9466068446636191 37.861768215894699 8.7426795363426191 6.7449329048395139 5.1906331479549408 29.257107004523277 6.3945475369691858 3.8268992900848415 5.9670429676771155 20.451602146029476 10.645143166184425 9.3134560137987119 4.6971716284751883 4.3356224298477164 9.330859571695326 160.54450839757919 25.555570423603058 3.2711932063102696 3.1754643917083731 3.9318469017744055 3.4776066094636917 3.6667697429656956 58.980826571583748 4.6809539198875418
leaf_count=1020 20 33 24 20 448 3318 37 186 49 39 33 199 31 20 38 137 73 68 25 25 52 1158 174 20 20 25 24 24 406 28
internal_value=0 -0.380964 -0.922863 -1.06515 0.507251 -1.14103 0.352055 -0.282056 0.489286 0.318075 -0.34892 0.907747 1.02321 0.841183 0.0136013 0.962561 0.465491 0.477614 -1.18291 1.0645 0.888937 1.13604 0.905266 0.916364 1.11539 1.06164 0.599966 1.00795 1.10668 0.892424
internal_weight=0 863.551 536.334 497.653 327.217 471.772 265.055 43.8084 11.8163 25.8811 11.9356 38.6806 319.399 122.221 15.6328 106.588 18.1388 221.246 459.956 88.449 13.9455 197.178 36.6335 9.23824 32.4326 32.965 7.40945 14.3119 84.1134 25.1326
internal_count=7774 5571 3812 3560 1759 3412 1311 223 69 148 72 252 2203 802 89 713 117 1088 3343 596 76 1401 243 58 219 223 49 97 571 165
shrinkage=0.1


Tree=12
num_leaves=31
num_cat=0
split_feature=18 0 36 20 8 15 0 1 17 28 17 23 34 5 11 4 11 26 1 3 31 21 3 20 13 19 5 33 36 53
split_gain=402.254 365.171 123.504 46.8988 31.5592 28.9822 17.4721 14.2688 8.79391 9.69333 8.57162 7.99639 6.55525 23.2264 12.0187 5.46698 4.82835 4.78413 4.68353 2.85295 5.56302 2.43287 2.04863 3.7182 1.94102 1.7884 1.51847 4.87649 1.26521 1.22181
threshold=-0.26040591850552192 -1.035781605123143 0.1203468240902963 -0.42946017641295325 -0.25432005273843555 -0.068856237232155879 -1.1747846122738699 0.26663891331279516 -0.25566461512297878 -0.63545428968842432 -0.60116140512290206 -0.58009611737424904 -0.32286166732204391 0.99036369853044393 1.3818320448309149 -0.20336348533589824 0.10213321750683743 -1.0862655504348113 -0.60551008903538017 -1.4407586463979214 0.17164368680402103 0.81212389380077832 -1.6975986901243363 -1.7646009601769435 -1.877606930245153 -0.32343736687095193 0.030921421728382689 -0.0072857449466217621 -3.9316166032064248 6.1360810197975608
decision_type=2 2 2 2 2 2 2 2 2 2 2 2 2 2 2 2 2 2 2 2 2 2 2 2 2 2 2 2 2 2
left_child=1 4 10 8 6 11 16 -8 15 -10 -3 -5 13 14 17 -4 -1 -2 -7 20 -19 -12 23 -14 -21 -17 -26 -28 -24 -30
right_child=12 2 3 5 -6 18 7 -9 9 -11 21 -13 22 -15 -16 25 -18 19 -20 24 -22 -23 28 -25 26 -27 27 -29 29 -31
leaf_value=0.040939843805840495 -0.01904612288686949 -0.049975002604984359 -0.044765196870326235 0.013151112282288106 0.11441811973195799 0.12950354059679894 0.12396213398324663 -0.04851640627060412 0.080159007631835449 -0.15582071643462703 0.11406820042573329 -0.11695139274517315 0.11721279059627641 -0.13941836872645313 -0.041132637798441271 0.038595393263711864 0.11749583105718353 0.11958007419215322 -0.016434723846816178 0.042321156093895661 -0.045448021900562713 0.028715691763273328 0.063422026944758805 -0.023437422936562383 0.11959964107649573 0.11876455165197963 0.00040913747180461974 0.11604682388949279 0.11494952965278962 0.047773164131199648
leaf_weight=208.00235809385777 3.3476109504699698 4.0620923787355414 3.4015308767557206 4.777659907937049 57.403905585408211 5.0758162587881088 5.5109920799732199 36.992337226867676 2.8867111951112747 4.3846785575151435 28.647613823413849 421.69460740685463 4.6336785778403282 4.6390736177563658 6.6012396067380896 3.8428176939487502 8.5781056731939298 4.6229013800621015 3.8800347149372083 4.2482162714004508 3.659718245267868 3.780213549733161 5.1055369079112998 3.1622284278273574 59.972087867558002 10.085628852248185 4.8384421095252064 14.80668845772743 175.23091644793749 2.7499998658895484
leaf_count=1020 20 20 21 26 448 32 37 186 20 25 211 3334 37 26 37 25 68 34 20 30 20 21 36 20 442 57 30 106 1345 20
internal_value=0 -0.366123 -0.901194 -1.04166 0.473318 -1.11755 0.324679 -0.261528 0.301622 -0.621378 0.869646 -1.15494 0.992681 0.794212 0.893648 0.688899 0.43972 0.983856 0.662772 1.02652 0.466616 1.04118 1.10366 0.601613 1.08181 0.966461 1.11696 0.875662 1.12504 1.13912
internal_weight=0 813.007 496.519 460.029 316.488 435.428 259.084 42.5033 24.6014 7.27139 36.4899 426.472 297.618 106.736 102.097 17.33 216.58 95.4957 8.95585 92.1481 8.28262 32.4278 190.882 7.79591 83.8654 13.9284 79.6172 19.6451 183.086 177.981
internal_count=7774 5571 3812 3560 1759 3412 1311 223 148 45 252 3360 2203 745 719 103 1088 682 52 662 54 232 1458 57 608 82 578 136 1401 1365
shrinkage=0.1


Tree=13
num_leaves=31
num_cat=0
split_feature=18 0 36 20 8 56 15 0 1 0 1 57 25 29 8 20 14 0 13 20 16 11 25 56 11 7 7 5 12 13
split_gain=352.104 321.225 109.318 42.4519 29.6341 27.3669 14.7296 14.4509 12.2932 8.07942 7.5506 7.58348 10.5022 6.40292 10.6146 14.2802 5.11708 10.73 12.313 9.1188 10.5444 4.62051 2.99061 2.76245 6.6901 3.10404 2.22626 1.79314 3.43608 0.94041
threshold=-0.26040591850552192 -1.035781605123143 0.1203468240902963 -0.42946017641295325 -0.25432005273843555 -0.031305555748148355 0.37292090102513809 -1.1747846122738699 0.26663891331279516 0.35424846638412716 -0.37652882813569505 0.044374931766038954 -1.0000000180025095e-35 0.38582073146563728 -0.24659037703241052 0.09410904269429797 0.23431481677716109 -1.1747846122738699 -0.98794169819387012 0.024753911589279014 -0.22781888392839431 0.10213321750683743 -0.12096829069131361 1.392225030078335 -1.0086776285272945 -0.35519477255321991 0.23363390744457818 -0.041694708197568119 0.5437811876170533 2.4190900026983386
decision_type=2 2 2 2 2 2 2 2 2 2 2 2 2 2 2 2 2 2 2 2 2 2 2 2 2 2 2 2 2 2
left_child=1 4 9 10 7 -5 27 21 -9 -3 -4 29 -13 23 15 -15 17 -16 -19 -20 -21 -1 -17 -2 -25 -26 -11 28 -7 -12
right_child=13 2 3 5 -6 6 -8 8 -10 26 11 12 -14 14 16 22 -18 18 19 20 -22 -23 -24 24 25 -27 -28 -29 -30 -31
leaf_value=0.03754811005903301 0.1148956687390297 -0.021067899666322332 -0.087999098256966835 0.13063246314388746 0.11219145785298945 -0.021207215514411529 0.081679641785488435 0.1212271203566308 -0.044708807206661004 0.11542535490758346 0.12325688901122603 -0.12988003592792385 0.10757382074482164 -0.12785745314915328 0.11347620694399424 0.12164587025022673 0.11124742518922413 -0.1545471232042202 0.10401226280274455 0.10446666182625391 -0.15220402238266348 0.11556070442677427 0.0012463994988009591 -0.040670544153536291 0.0073875118499585864 0.11019854465176196 0.02339116247884504 -0.11564700302516114 -0.12315912603993995 0.057852502984022884
leaf_weight=204.31264141201973 135.36746536940336 6.0914771556854239 4.5118106752634075 4.685692034661769 52.919158935546875 5.8865505605936033 3.8698353618383399 5.0932334363460532 36.172820270061493 25.368519537150863 8.6326034665107745 4.1141360402107239 3.4034876674413672 5.5769311264157286 21.826517798006535 5.516608089208602 50.41818518191576 3.61377736181021 10.963727273046972 2.7502201721072197 3.828848458826541 7.8850694373249999 3.2954581603407851 3.8752450346946707 3.2982137948274639 26.785834945738316 2.9321020990610114 379.31333268433809 7.5401926711201668 2.9495046958327285
leaf_count=1020 1137 33 27 28 448 38 24 37 186 199 50 26 24 28 176 41 394 20 79 22 22 68 20 23 22 219 20 3267 55 21
internal_value=0 -0.351763 -0.880775 -1.01957 0.441279 -1.09624 -1.12463 0.299173 -0.242283 0.834035 0.28351 0.558357 -0.223765 0.963704 0.773188 -0.0263202 0.896357 0.642856 0.135373 0.481623 -0.449091 0.40447 0.766199 1.08498 0.829969 0.98927 1.0589 -1.14376 -0.784614 1.06601
internal_weight=0 765.682 459.299 424.907 306.383 401.296 396.61 253.464 41.2661 34.3921 23.6115 19.0997 7.51762 277.117 107.79 14.389 93.4013 42.9831 21.1566 17.5428 6.57907 212.198 8.81207 169.327 33.9593 30.084 28.3006 392.74 13.4267 11.5821
internal_count=7774 5571 3812 3560 1759 3412 3384 1311 223 252 148 121 50 2203 802 89 713 319 143 123 44 1088 61 1401 264 241 219 3360 93 71
shrinkage=0.1


Tree=14
num_leaves=31
num_cat=0
split_feature=18 0 8 21 49 31 14 58 0 57 1 48 39 7 5 32 14 17 1 37 18 5 21 59 9 37 14 22 4 40
split_gain=309.014 275.07 81.0106 94.6204 47.5839 22.6746 14.311 13.2088 12.9876 8.89132 7.42554 7.14503 11.3661 14.5665 10.0191 16.5836 5.75383 3.74282 5.50122 3.29165 2.5882 2.26676 2.26014 1.2934 2.83331 1.2191 1.00714 0.825835 0.817393 1.33771
threshold=-0.43501339528248534 -1.035781605123143 -1.1436998587112976 -0.9286061456860164 -0.37631923947937923 -2.0674247350209352 -0.25717174131925041 0.054005783448719716 -1.1747846122738699 -0.97672259780829862 0.26663891331279516 -0.071206919564786433 -0.46799694459859337 1.2592701550947094 0.32889329684299951 2.2197752702989608 -0.75501670731769155 -0.64006289843115471 -2.0984472193272454 -0.25698189305231139 -0.23128848704217511 0.17124691816623766 1.3113330130513976 0.70706433450158779 0.78868457866483588 0.12579363236422378 -0.49746108458925659 -0.41597285313332905 2.7093294832584061 1.6413480288798172
decision_type=2 2 2 2 2 2 2 2 2 2 2 2 2 2 2 2 2 2 2 2 2 2 2 2 2 2 2 2 2 2
left_child=1 6 3 25 5 -3 8 -7 21 -6 -10 12 13 14 16 -16 -4 18 -14 27 -5 -1 26 -19 -25 -2 -18 -9 -13 -30
right_child=2 4 11 20 9 7 -8 19 10 -11 -12 28 17 -15 15 -17 22 23 -20 -21 -22 -23 -24 24 -26 -27 -28 -29 29 -31
leaf_value=0.034679459430946517 0.056447144382146833 0.11813342634452273 -0.041733969583030883 -0.11082297088947309 -0.060544318673935338 0.091331353257262715 0.11019891519612685 -0.16206730225485555 0.11617444230973439 0.11552881843385188 -0.0406551278601259 0.11328179558523231 0.115209077282731 -0.1394022022633388 -0.13003297740232711 0.11648786032255445 0.049096751638403116 0.11193131406050974 -0.076214741262091559 -0.20934574762655123 -0.19124860748880002 0.11415272151327777 0.0039682258439527772 0.015682877713009826 0.11221577869000168 0.12045324356457038 0.1048589609634242 -0.11355914158152036 0.021869653007035514 0.1176449797824847
leaf_weight=200.38213939964771 3.3513914048671749 4.2924920618534079 3.4753607362508765 37.601496681571007 3.840808019042016 3.1272974312305442 22.046797789633274 3.5489054918289176 3.3021704554557791 11.323430843651291 35.214625224471092 136.50826638191938 3.202164888381958 3.9739872291684142 6.4115805104374868 4.7507127672433853 3.6013136431574813 75.74229072034359 2.8264456912875167 3.6696345582604399 4.4778833091258994 3.654369853436946 2.6756527572870246 4.6999780461192122 8.6112164929509145 26.549384795129299 32.195246294140816 317.26673486083746 2.6139073371887198 3.2987188026309013
leaf_count=1017 20 35 25 345 22 24 201 22 28 77 185 1190 28 24 43 40 31 671 20 20 22 34 20 37 77 215 280 2973 20 28
internal_value=0 -0.437422 0.723696 -0.227335 -1.02295 -1.1021 0.330605 -1.13202 0.26049 0.709329 -0.272096 0.956073 0.805404 0.452676 0.590857 -0.251128 0.81491 1.01717 0.254622 -1.15173 -1.19381 0.361029 0.926224 1.06879 0.781315 1.13279 0.99249 -1.14096 1.11705 0.753038
internal_weight=0 611.669 366.567 71.9802 347.069 331.905 264.6 327.613 242.553 15.1642 38.5168 294.587 152.166 57.0839 53.1099 11.1623 41.9476 95.0821 6.02861 324.485 42.0794 204.037 38.4722 89.0535 13.3112 29.9008 35.7966 320.816 142.421 5.91263
internal_count=7774 4638 3136 602 3173 3074 1465 3039 1264 99 213 2534 1296 463 439 83 356 833 48 3015 367 1051 331 785 114 235 311 2995 1238 48
shrinkage=0.1


Tree=15
num_leaves=31
num_cat=0
split_feature=18 0 36 20 8 9 4 0 1 17 17 28 48 11 34 67 16 40 11 23 4 13 47 3 21 21 15 21 21 8
split_gain=271.498 251.095 86.9377 34.7733 26.096 22.7851 10.4397 9.84554 9.23162 7.4532 6.26863 7.46828 6.11397 11.1815 18.0285 6.65982 4.35821 8.37479 4.27494 4.08973 3.62877 3.04665 2.50752 2.43324 2.61457 2.38913 1.56081 3.04399 1.20714 1.15169
threshold=-0.26040591850552192 -1.035781605123143 0.1203468240902963 -0.42946017641295325 -0.25432005273843555 0.11928929520778209 0.49181192029236193 -1.1747846122738699 0.26663891331279516 -0.60116140512290206 -0.25566461512297878 -0.63545428968842432 -0.071206919564786433 0.015632635520011946 0.044332883372138553 1.0000000180025095e-35 1.5417521311283497 -0.35060757278179261 0.10213321750683743 -0.32221708446644209 -0.20336348533589824 -2.0426926199573381 2.9285201327284045 -1.6975986901243363 -0.58889574420998791 0.81212389380077832 -0.25071020415193035 -0.9286061456860164 0.50406421263110313 0.5631432288587449
decision_type=2 2 2 2 2 2 2 2 2 2 2 2 2 2 2 2 2 2 2 2 2 2 2 2 2 2 2 2 2 2
left_child=1 4 9 10 7 6 -5 18 -9 -3 20 -12 13 15 -15 16 21 -18 -1 -8 -4 -2 -14 24 -23 -11 27 -22 -7 -16
right_child=12 2 3 5 -6 28 19 8 -10 25 11 -13 22 14 29 -17 17 -19 -20 -21 26 23 -24 -25 -26 -27 -28 -29 -30 -31
leaf_value=0.031482282331304852 -0.0068692827680188143 -0.050643005604683433 -0.036902724861652914 -0.1187394536072206 0.10836690832776524 -0.11252442518470154 0.12765835934864025 0.11688787220043691 -0.037860791090549552 0.10798756860551616 0.076118045582305657 -0.14915983718251244 0.11059406346272781 -0.12940396375487206 0.11500184679105224 -0.050280066013918094 -0.066986333069451037 0.095722247138149516 0.11261747834146521 0.0020536263970861489 0.11406695033910325 0.1141637950126641 0.028773029450630212 0.10676426899735619 -0.031071502467034596 0.018796570129697696 0.12933089643291826 -0.017224099834334813 -0.062837526749833519 0.030772297971555299
leaf_weight=197.64755795896053 2.6135162785649291 3.9620144739747074 3.0414461418986347 4.1110452562570563 44.852628380060196 319.36109431087971 5.5921152904629698 4.3369299322366706 34.691323146224022 23.09785054624081 2.4481091573834419 3.689162351191043 112.1936197206378 6.5576611235737792 6.0749878883361799 3.4202647432684889 4.8296591192483893 9.1690711900591833 6.7146063223481169 4.8323875069618216 3.9757485538721085 2.2721560299396515 3.8748990297317496 83.122977316379547 2.7274088114500037 3.4521543905138961 4.829290494322775 3.1771329194307327 4.9656270146369925 2.2152948677539825
leaf_count=1020 21 20 21 36 448 3268 35 37 186 211 20 25 1065 37 57 26 31 87 68 38 28 21 28 790 20 21 31 23 35 20
internal_value=0 -0.325201 -0.847723 -0.985078 0.382754 -1.06274 0.162127 0.253587 -0.206647 0.772981 0.258584 -0.592983 0.913999 0.758654 -0.0550802 0.870367 0.915209 0.395867 0.341481 0.69433 0.606456 0.995334 1.07863 1.02689 0.349337 0.963905 0.854064 0.557507 -1.11764 0.924944
internal_weight=0 678.778 390.535 360.023 288.243 338.862 14.5355 243.39 39.0283 30.512 21.1609 6.13727 239.072 123.003 14.8479 108.155 104.735 13.9987 204.362 10.4245 15.0236 90.7361 116.069 88.1225 4.99956 26.55 11.9822 7.15288 324.327 8.29028
internal_count=7774 5571 3812 3560 1759 3412 109 1311 223 252 148 45 2203 1110 114 996 970 118 1088 73 103 852 1093 831 41 232 82 51 3303 77
shrinkage=0.1


Tree=16
num_leaves=31
num_cat=0
split_feature=1 0 18 20 18 0 51 37 48 46 37 13 39 49 3 48 0 34 25 27 7 18 8 8 4 12 18 7 27 15
split_gain=238.562 133.94 167.544 40.1343 22.8761 16.8774 13.3773 11.7726 11.8811 11.6492 8.13978 8.08271 17.8326 5.51739 5.48654 5.01768 6.29307 10.5552 12.9935 22.0304 4.79099 2.60074 2.36698 2.24367 1.83123 1.68392 1.5514 1.36707 1.1806 1.0047
threshold=0.26663891331279516 -1.1747846122738699 -0.26040591850552192 -0.42946017641295325 -0.52775086210017363 -1.035781605123143 -0.48617646810059251 -0.27513613286430377 1.0000000180025095e-35 -0.081893690633381297 -0.22807154059023887 2.0915840634250462 1.2046314586103777 -1.4500900618307349 0.0031022640908656535 -0.27465090339636966 -1.1747846122738699 -0.32286166732204391 -0.095905153419359304 -0.22041858379810408 -0.68747236680567303 1.3977706459178425 -0.95516740539607115 -1.3304550516343785 -0.80512293266624602 -1.1378941677899916 -0.32597434905374822 -0.83193708284317147 -1.6850608339644253 -0.34210363106408898
decision_type=2 2 2 2 2 2 2 2 2 2 2 2 2 2 2 2 2 2 2 2 2 2 2 2 2 2 2 2 2 2
left_child=4 14 3 10 20 -5 -7 8 -4 -6 -3 13 -13 -11 -2 16 -15 18 19 -18 -1 25 -12 -9 -25 -19 -21 -10 -17 -26
right_child=1 2 7 5 9 6 -8 23 27 11 22 12 -14 15 -16 28 17 21 -20 26 -22 -23 -24 24 29 -27 -28 -29 -30 -31
leaf_value=0.0099582573323748064 0.029567272280883378 -0.10282453421493265 -0.13486669384122302 -0.034777224905846844 -0.1109295024888623 0.093950212041627901 -0.11134877795668184 0.025008270462431443 0.11608889696210599 -0.04301713755252573 0.027629957169191251 -0.13748550205184107 0.12071265642695393 0.1076045678290307 0.11137397520605988 0.05130640295070036 0.099028856688739772 0.033863234588345642 0.10658979342560158 -0.11526824259621293 -0.16746764057471825 -0.011392620559315215 0.11997580711479344 0.026395153799884854 0.044885670467926887 0.11027619334428462 -0.20036180952093555 0.018140986933367614 0.11060487200167542 0.11157753786486974
leaf_weight=2.4152974486351013 194.14724323153496 2.5360838696360597 4.7253308668732625 34.026677340269089 2.9121767133474341 3.2085775285959235 293.74224503338337 3.8945799916982642 3.6093076094985008 2.8872336223721495 3.942646510899066 4.8163129240274412 6.0162055715918541 42.056006968021393 8.5596866309642774 3.4502332359552375 5.7065887004137048 3.2523612454533639 7.8547796607017508 4.6827860996127129 4.1145796552300444 2.1917352080345145 9.3771020025014842 2.890480823814868 2.3748084828257552 25.459174297749996 3.9496675357222557 2.3545158505439758 124.90573877841234 46.263614103198051
leaf_count=20 1016 20 31 186 21 34 3273 34 32 23 29 28 52 444 94 30 51 29 60 43 33 20 77 28 20 261 20 20 1263 482
internal_value=0 -0.335516 -0.662311 -0.94041 0.828365 -1.01486 -1.09131 0.796624 -0.164256 0.878582 0.613773 0.902985 0.0591358 0.943361 0.330217 0.961104 0.787083 0.558208 0.0320888 -0.534221 -1.01841 0.936052 0.926414 0.981942 1.03726 1.0162 -1.54202 0.774191 1.09011 1.08321
internal_weight=0 615.653 412.946 346.833 246.671 330.977 296.951 66.1126 10.6892 240.141 15.8558 237.229 10.8325 226.396 202.707 223.509 95.1531 53.0971 22.1938 14.339 6.52988 30.9033 13.3197 55.4235 51.5289 28.7115 8.63245 5.96382 128.356 48.6384
internal_count=7774 5376 4266 3619 2398 3493 3307 647 83 2345 126 2324 80 2244 1110 2221 928 484 174 114 53 310 106 564 530 290 63 52 1293 502
shrinkage=0.1


Tree=17
num_leaves=31
num_cat=0
split_feature=18 0 36 6 8 8 49 11 0 0 29 13 2 15 48 51 1 21 15 20 60 8 7 8 8 3 4 16 5 37
split_gain=209.489 197.147 69.106 28.2505 22.8779 20.2629 19.8257 7.02012 8.50308 6.56796 5.67179 8.49724 7.12955 7.95187 10.5874 5.2851 7.2721 4.4459 9.53394 3.55023 3.39551 8.1099 2.2579 2.12618 1.44896 1.39398 1.33611 0.880392 1.29304 0.860621
threshold=-0.26040591850552192 -1.035781605123143 0.1203468240902963 0.10837628758514965 -0.25432005273843555 -1.2561362034275603 -0.28775545685455489 0.10213321750683743 -1.1747846122738699 0.35424846638412716 0.38582073146563728 1.6574077361537636 -0.052824043964869068 0.060453315504428728 -0.27723198485680695 -0.2981994950338861 2.2175116972136739 -0.9286061456860164 0.4516509170200762 -2.153429788299301 -1.9873456738535884 -1.1436998587112976 0.23363390744457818 -0.29742021587128281 3.1052714138708599 -1.4407586463979214 -2.5324328866037411 1.1385748891641641 0.86733369387126846 -1.2241218546944823
decision_type=2 2 2 2 2 2 2 2 2 2 2 2 2 2 2 2 2 2 2 2 2 2 2 2 2 2 2 2 2 2
left_child=1 4 9 6 7 17 -4 8 -1 -3 20 12 19 14 -14 16 -8 -5 -19 -12 21 -2 -11 -23 25 -21 -27 -6 -29 -22
right_child=10 2 3 5 27 -7 15 -9 -10 22 11 -13 13 -15 -16 -17 -18 18 -20 24 29 23 -24 -25 -26 26 -28 28 -30 -31
leaf_value=0.026227644612113438 -0.044506288862568709 -0.024348823654541676 -0.11582392605318122 0.12564706112829127 0.11029838228899061 -0.10933274747665811 -0.10406622951316405 0.11138576595102828 -0.027765068589335529 0.10840684761977125 -0.011031062930372239 -0.048198441038727016 0.11350602479617551 0.093494685220674903 -0.1173153007415913 0.12371703566451969 0.11583315464001281 -0.143336334586153 0.12050359262418434 0.034674568621421396 0.063102034141823762 0.11095404156182237 0.0076804487011282356 0.020812456486818395 0.037308230976534303 0.029441475458364032 0.10912063114237483 -0.0042850657027991707 0.11114029080890082 0.11054409915761326
leaf_weight=191.86696614325047 5.1471486538648632 5.6893802508711842 8.2121936008334178 3.7316651344299316 33.933366313576698 270.98247506469488 3.0726244747638694 8.3503472954034788 34.397063359618187 18.88121780008078 3.1885714158415785 5.9913972541689864 2.901467390358448 7.6250087693333617 6.3062395974993724 9.3453576639294607 2.9455632343888283 2.8343500420451146 2.6502038240432739 2.9330915659666053 3.9844183251261702 16.420289687812335 2.5228097289800635 3.112703643739219 3.7450134679675093 2.2015438228845587 47.74878828972578 1.73311548680067 2.2057260647416115 94.801027692854404
leaf_count=1020 29 33 79 28 403 3298 20 95 196 199 23 33 28 72 40 66 26 22 21 27 43 187 20 27 35 20 524 20 25 1115
internal_value=0 -0.300045 -0.81879 -0.955276 0.329844 -1.04373 0.0960517 0.213426 0.180196 0.711501 0.867696 0.664933 0.754583 0.179658 -0.445805 0.766501 0.0356211 0.41445 -0.158456 0.916369 1.00341 0.671633 0.965346 0.965894 0.974178 1.01675 1.05609 1.05104 0.603524 1.08631
internal_weight=0 603.354 330.868 303.774 272.487 280.199 23.5757 234.614 226.264 27.0934 206.107 82.6411 76.6497 16.8327 9.20771 15.3635 6.01819 9.21622 5.48455 59.817 123.466 24.6801 21.404 19.533 56.6284 52.8834 49.9503 37.8722 3.93884 98.7854
internal_count=7774 5571 3812 3560 1759 3369 191 1311 1216 252 2203 802 769 140 68 112 46 71 43 629 1401 243 219 214 606 571 544 448 45 1158
shrinkage=0.1


Tree=18
num_leaves=31
num_cat=0
split_feature=18 0 8 21 49 31 14 58 57 0 48 39 7 5 32 14 1 17 1 37 20 5 13 18 59 9 37 4 13 11
split_gain=183.946 177.981 50.9865 63.1157 33.5269 15.0071 10.6651 8.58074 6.72392 6.01785 5.85896 9.00435 10.3348 6.86852 11.3603 4.50161 4.29456 3.56694 4.74678 2.07673 1.88288 1.82132 1.59598 1.58774 1.42336 2.81829 1.34308 1.03982 1.54153 0.811647
threshold=-0.43501339528248534 -1.035781605123143 -1.1436998587112976 -0.9286061456860164 -0.37631923947937923 -2.0674247350209352 -0.25717174131925041 0.054005783448719716 -0.97672259780829862 -1.1747846122738699 -0.071206919564786433 -0.46799694459859337 1.2592701550947094 0.32889329684299951 2.2197752702989608 -0.75501670731769155 0.26663891331279516 -0.64006289843115471 -2.0984472193272454 -0.25698189305231139 -1.5515120753564793 0.17124691816623766 1.2520666575675647 -0.23128848704217511 0.70706433450158779 0.78868457866483588 0.12579363236422378 2.7093294832584061 -0.51139878441811726 0.60423653439567271
decision_type=2 2 2 2 2 2 2 2 2 2 2 2 2 2 2 2 2 2 2 2 2 2 2 2 2 2 2 2 2 2
left_child=1 6 3 26 5 -3 9 -7 -6 21 11 12 13 15 -15 -4 -11 18 -13 -9 -17 -1 -22 -5 29 -26 -2 -12 -29 -19
right_child=2 4 10 23 8 7 -8 19 -10 16 27 17 -14 14 -16 20 -18 24 -20 -21 22 -23 -24 -25 25 -27 -28 28 -30 -31
leaf_value=0.024217159312023197 0.040172730041896795 0.11222889562407644 -0.045524777084365323 -0.10451214993721024 -0.058773115947396419 0.08218525005260903 0.10337928002240569 -0.10903248037395862 0.10676002609177485 0.11050795183589079 0.10672413720598942 0.11131170638056985 -0.13151940851808447 -0.1244052709110095 0.1109089846465194 -0.0044616220607044182 -0.029077153572551636 0.10853413722397837 -0.080603101089349538 -0.18846388016575671 0.097744743309999188 0.10907718945264094 0.0032568782607826858 -0.16948235803282802 0.00026221855878793475 0.10718876081863325 0.11464322521358972 0.11259635529905339 -0.0041720438004141961 0.044456690164069002
leaf_weight=188.90565486997366 2.7570523247122791 3.1292452141642562 2.9830129295587531 26.857932865619663 3.3478572443127623 2.3422813713550559 15.788194194436072 225.22533471137285 9.1895018219947797 2.3632029742002478 98.219300530850887 2.5289758667349815 3.3962364271283141 5.0925616323947889 3.4357534423470497 2.2442458570003536 32.748564630746841 53.785519823431969 2.6280859485268584 3.3403233811259261 24.72375953942538 2.5635027363896361 1.9269408583641039 4.3739736378192893 4.0166584327816945 6.3808614313602448 19.914544597268105 2.4078192487359047 2.1313310340046874 2.0521981194615355
leaf_count=1017 20 35 25 345 22 24 201 2995 77 28 1190 28 24 43 40 20 185 651 20 20 290 34 21 22 37 77 215 26 22 20
internal_value=0 -0.369428 0.656652 -0.214173 -0.967594 -1.05294 0.239117 -1.08242 0.625576 0.183744 0.872022 0.717168 0.360236 0.501059 -0.296056 0.714312 -0.196824 0.936163 0.135102 -1.10193 0.835053 0.253533 0.909129 -1.13611 0.998533 0.65882 1.05587 1.04562 0.577684 1.06179
internal_weight=0 488.944 271.857 53.9035 246.575 234.037 242.369 230.908 12.5374 226.581 217.953 115.195 43.8025 40.4063 8.52832 31.878 35.1118 71.3923 5.15706 228.566 28.8949 191.469 26.6507 31.2319 66.2352 10.3975 22.6716 102.758 4.53915 55.8377
internal_count=7774 4638 3136 602 3173 3074 1465 3039 99 1264 2534 1296 463 439 83 356 213 833 48 3015 331 1051 311 367 785 114 235 1238 48 671
shrinkage=0.1


Tree=19
num_leaves=31
num_cat=0
split_feature=18 0 36 6 8 8 49 11 17 0 90 32 11 5 20 33 11 4 21 15 7 13 21 18 20 13 13 14 7 5
split_gain=161.717 156.293 55.8516 23.4838 19.8574 16.4342 15.6125 6.17369 6.08093 5.73711 5.56189 5.45692 8.2408 7.92877 10.5836 7.15196 4.49643 4.44745 3.59137 7.86496 3.49186 2.64054 2.79254 2.51337 4.41636 1.68882 1.66274 1.07863 1.26781 2.76463
threshold=-0.26040591850552192 -1.035781605123143 0.1203468240902963 0.10837628758514965 -0.25432005273843555 -1.2561362034275603 -0.28775545685455489 0.10213321750683743 -0.60116140512290206 -1.1747846122738699 1.0000000180025095e-35 0.34734534110934712 1.4605533661071763 1.1201527191409544 -0.42946017641295325 2.284070112893875 -0.63655731044455688 2.2125180864654594 -0.9286061456860164 0.4516509170200762 1.119089523042782 -1.877606930245153 0.88326213765799244 -0.43213905891985427 -0.10000671842918059 1.374151178030883 2.4190900026983386 -1.3707427438132278 1.5944368004140121 -0.34958704530748103
decision_type=2 2 2 2 2 2 2 2 2 2 2 2 2 2 2 2 2 2 2 2 2 2 2 2 2 2 2 2 2 2
left_child=1 4 8 6 7 18 -4 9 -3 -1 11 12 13 17 20 -14 -8 21 -5 -20 -15 22 -2 24 -10 -18 27 -23 -29 -30
right_child=10 2 3 5 -6 -7 16 -9 23 -11 -12 -13 15 14 -16 -17 25 -19 19 -21 -22 26 -24 -25 -26 -27 -28 28 29 -31
leaf_value=0.021807773985439802 -0.068557263550649658 -0.05130469461013154 -0.1129991555875447 0.12092875838829986 0.10221329884906308 -0.10725160642263357 -0.046337280597181084 0.10944010300560265 0.10974162197298294 -0.023231191052127332 -0.045604500880255167 0.10567917914956025 -0.13479210432429917 -0.04906502857533053 -0.15008252346181727 0.11117690908554237 0.1199067951879518 -0.044549753935163063 -0.13872557482992143 0.11804385479500899 0.10902282280815923 0.034216561479380687 0.10944089193412798 0.11255635169789191 -0.05264477991800938 0.02782707232565515 0.031576419380974573 0.10477838818059755 0.11124178142875546 -0.010769200197190798
leaf_weight=187.03173218667507 2.0750837773084636 3.7258353456854847 6.9965558014810112 3.1933240965008736 31.898749835789204 226.25383973121643 2.6610303223133096 7.146046169102191 3.7916645407676697 33.321145221590996 3.3223554119467726 73.655062966048717 3.4996391683816901 1.9380241706967352 3.4161402061581594 1.7851119041442869 8.518068008124823 2.5052864477038375 2.4964939169585696 2.2845644280314445 5.006852813065052 2.5671887248754492 1.5321877300739286 13.543501272797581 2.9998739212751433 2.5997601523995408 3.9805861413478842 64.268792979419231 4.5884936824440956 3.1198079735040656
leaf_count=1020 20 20 79 28 448 3298 20 95 48 196 31 993 20 20 26 20 69 23 22 21 67 27 20 163 21 23 28 823 53 32
internal_value=0 -0.275565 -0.794989 -0.932409 0.283241 -1.02279 0.0865485 0.179637 0.661418 0.149971 0.825635 0.850116 0.698319 0.765931 -0.059773 -0.517074 0.704277 0.867011 0.388138 -0.160318 0.649071 0.907047 0.0704741 0.876607 0.380143 0.983751 0.945477 0.979103 1.00182 0.618598
internal_weight=0 538.462 279.065 255.004 259.398 234.228 20.7754 227.499 24.0609 220.353 177.261 173.938 100.283 94.9984 10.361 5.28475 13.7789 84.6374 7.97438 4.78106 6.94488 82.1321 3.60727 20.335 6.79154 11.1178 78.5249 74.5443 71.9771 7.7083
internal_count=7774 5571 3812 3560 1759 3369 191 1311 252 1216 2203 2172 1179 1139 113 40 112 1026 71 43 87 1003 40 232 69 92 963 935 908 85
shrinkage=0.1


Tree=20
num_leaves=31
num_cat=0
split_feature=1 0 18 20 0 18 46 34 37 37 13 39 24 49 48 0 34 49 27 3 7 0 25 8 14 4 27 15 9 15
split_gain=141.902 83.3006 103.16 26.8286 17.7536 15.6383 10.1417 8.94347 8.57959 8.11966 6.38572 12.9646 5.74449 5.0371 4.45397 5.38298 7.43455 9.3031 13.3327 4.36942 3.72224 2.82169 2.9953 2.14143 1.93016 1.82841 1.13469 1.12961 1.11618 0.844551
threshold=0.26663891331279516 -1.1747846122738699 -0.26040591850552192 -0.42946017641295325 -1.035781605123143 -0.52775086210017363 -0.081893690633381297 2.3918856190264877 -0.27513613286430377 -0.61971432870148146 2.0915840634250462 1.2046314586103777 -0.15552506379271833 -1.4500900618307349 -0.27465090339636966 -1.1747846122738699 -0.32286166732204391 -0.35079181570854817 -0.22041858379810408 0.0031022640908656535 -0.68747236680567303 0.076242452082673107 0.34394965728055121 -1.3304550516343785 0.65438990630009231 -0.80512293266624602 -1.6850608339644253 -0.34210363106408898 0.75846154594372883 -0.052850100750556725
decision_type=2 2 2 2 2 2 2 2 2 2 2 2 2 2 2 2 2 2 2 2 2 2 2 2 2 2 2 2 2 2
left_child=5 19 3 12 -5 20 -7 -6 9 -4 13 -12 -3 -8 15 -15 17 18 -17 -2 -1 -18 -23 -10 -20 -25 -16 -27 -14 -11
right_child=1 2 8 4 7 6 10 -9 23 29 11 -13 28 14 26 16 21 -19 24 -21 -22 22 -24 25 -26 27 -28 -29 -30 -31
leaf_value=0.012399800778899765 0.020687256553478611 -0.059737400509155547 0.11049845528529408 -0.025111306911916726 -0.10719882484366719 -0.11384110917661246 -0.053511370731600442 0.10775177480030802 0.012684229152889141 -0.1300795872002406 -0.12361980362819783 0.11682741524571275 0.11492373254107298 0.10199373512504493 0.039949020009632019 0.09371191180487573 -0.03597889092757367 0.11369167118092655 -0.15412378063449581 0.10741469406854583 -0.16423622666788465 0.10569838462495112 -0.027799451824633198 0.012139119548472358 -0.044915577303121609 0.029834277878457872 0.10539485628157604 0.10735089516510088 0.033449396097901735 -0.049537519978869404
leaf_weight=1.9079843461513515 184.43649414181709 3.1993116140365592 2.9981970861554146 31.978714182972908 205.05132753029466 2.667258769273757 2.5109370350837699 1.954105220735072 3.2574313208460799 3.0200931616127491 4.3447640947997552 4.6343244984745979 7.0941727906465513 30.350778337568045 2.7286609336733809 4.280067704617978 1.8145583420991922 4.884630173444747 5.919909305870533 5.998043827712535 3.1837016195058814 19.170893426984552 1.8422096110880364 2.3666162714362136 2.2272919192910194 1.9930645897984494 90.969092838466167 33.11360302940011 2.2038411423563957 2.2883932553231698
leaf_count=20 1016 32 37 186 3277 21 23 30 34 25 28 52 74 444 30 51 20 46 52 94 33 269 21 28 25 20 1263 482 20 21
internal_value=0 -0.283259 -0.611159 -0.869879 -0.94457 0.747569 0.796904 -1.0517 0.715651 -0.210575 0.826287 0.00480814 0.558429 0.870535 0.892032 0.702142 0.461846 -0.0323499 -0.491939 0.234189 -0.980462 0.836632 0.939947 0.904547 -1.24268 0.97215 1.03489 1.0295 0.956125 -0.953593
internal_weight=0 490.953 300.519 251.481 238.984 183.437 178.345 207.005 49.0374 8.30668 175.678 8.97909 12.4973 166.699 164.188 70.4903 40.1396 17.3119 12.4273 190.435 5.09169 22.8277 21.0131 40.7307 8.1472 37.4733 93.6978 35.1067 9.29801 5.30849
internal_count=7774 5376 4266 3619 3493 2398 2345 3307 647 83 2324 80 126 2244 2221 928 484 174 128 1110 53 310 290 564 77 530 1293 502 94 46
shrinkage=0.1


Tree=21
num_leaves=31
num_cat=0
split_feature=18 0 36 27 22 8 11 27 19 11 0 3 32 16 47 48 16 0 17 0 4 19 5 7 7 14 70 16 20 1
split_gain=124.79 124.306 44.9637 19.9005 19.4149 17.1033 8.08408 7.6142 6.64331 5.39353 5.26962 8.92059 5.18314 7.79223 5.48086 5.12425 19.1154 4.17744 7.75819 3.83908 2.99903 1.90947 1.9008 3.00072 1.7985 1.5717 1.31849 1.17556 1.61893 1.03816
threshold=-0.26040591850552192 -1.035781605123143 0.1203468240902963 -0.18235343542781732 -0.17563549112483379 -0.25432005273843555 -0.24004849066235381 1.2415587362412832 2.0559121541152501 0.10213321750683743 0.49325147353485421 -1.0481021929307108 0.34734534110934712 -0.84459774062005932 2.7506198772835861 -0.27465090339636966 -0.21392883364009826 -1.035781605123143 -0.087867728652066615 -1.1747846122738699 2.2125180864654594 -0.20749554848168358 1.2844734461456884 1.0545535817694882 -0.68747236680567303 -1.1253961531859928 1.0000000180025095e-35 1.1385748891641641 0.024753911589279014 -0.68210235713923473
decision_type=2 2 2 2 2 2 2 2 2 2 2 2 2 2 2 2 2 2 2 2 2 2 2 2 2 2 2 2 2 2
left_child=1 5 10 4 6 9 21 -5 -6 19 11 -3 13 -2 15 16 17 -15 -19 -1 22 -4 -17 -24 -18 -12 -14 -7 -29 -20
right_child=12 2 3 7 8 27 -8 -9 -10 -11 25 -13 26 14 -16 20 24 18 29 -21 -22 -23 23 -25 -26 -27 -28 28 -30 -31
leaf_value=0.017996235499948575 -0.085857893723697135 0.12351772385102733 0.0077278803761879223 0.11506168415653531 -0.10694316145418906 0.10685259594836161 -0.1292637834111178 -0.080012893912844732 0.059455087680575003 0.10780174211505289 -0.0013229728464671025 -0.11720138422348139 0.10320730211400393 0.11020120779948217 -0.068762785627605461 0.10601512984471875 -0.046403197202031496 -0.11843926137286076 0.10823632726962865 -0.019351387024656184 -0.014620418836332305 0.1127399197974093 -0.062118456238525556 0.094239659011409405 -0.15431378570539389 0.10438176888765394 0.019878911860354041 0.10749206742941636 -0.041855922514416027 0.022391287470203195
leaf_weight=182.90885563194752 3.3781169578433028 2.6642239466309547 2.4792509824037543 6.2585098668932897 191.32723888382316 23.91158922016621 2.3495686613023272 2.9412137120962143 2.4297829940915099 6.0905889458954325 1.5709880068898208 3.6465963385999229 60.684700042009354 16.938086744397879 2.796713273972272 42.899347938597202 2.5594326704740524 2.6367987580597401 4.8712867312133312 32.398541837930679 2.4472390189766875 5.74154408276081 1.803533762693404 3.8422037549316883 3.8947734721004954 13.445429909974333 1.9601801000535475 1.5996087491512292 1.3287370204925535 1.9819063246250168
leaf_count=1020 26 23 24 70 3343 403 23 26 25 95 21 25 974 245 22 645 24 20 72 196 26 49 20 58 28 183 22 25 20 21
internal_value=0 -0.25199 -0.773504 -0.911788 -0.976567 0.241407 0.343173 0.52695 -1.04856 0.150014 0.61099 -0.155776 0.785106 0.631436 0.689512 0.735431 0.427629 0.804419 0.273264 0.123763 0.933916 0.810701 0.988367 0.44291 -1.11522 0.933231 1.006 0.995287 0.397254 0.834104
internal_weight=0 483.092 234.854 213.527 204.327 248.238 10.5704 9.19972 193.757 221.398 21.3272 6.31082 152.694 90.0494 86.6713 83.8746 32.8823 26.4281 9.48999 215.307 50.9923 8.2208 48.5451 5.64574 6.45421 15.0164 62.6449 26.8399 2.92835 6.85319
internal_count=7774 5571 3812 3560 3464 1759 96 96 3368 1311 252 48 2203 1207 1181 1159 410 358 113 1216 749 73 723 78 52 204 996 448 45 93
shrinkage=0.1


Tree=22
num_leaves=31
num_cat=0
split_feature=18 0 21 19 8 26 40 32 6 21 29 0 14 27 33 27 11 27 60 20 47 49 17 36 0 22 20 11 16 5
split_gain=109.586 110.952 40.5335 27.0162 15.8074 10.9433 7.5401 7.64737 5.2933 5.12553 4.98218 7.52461 8.4418 9.39778 12.0473 8.83017 4.95966 4.2859 3.77295 8.01584 5.29741 3.30444 7.71239 3.28487 3.14359 1.48791 1.48281 1.38165 1.19021 1.67373
threshold=-0.26040591850552192 -1.035781605123143 -0.31384467103004166 1.0000000180025095e-35 -0.25432005273843555 -0.45852687845128642 -0.33763925791626603 2.7335907471258944 -0.81022993471078919 0.27105984974340641 0.38582073146563728 -1.1747846122738699 1.240554530971157 -0.22041858379810408 -0.054428659292553229 -0.21073011837573932 0.10213321750683743 0.98942760541357522 -1.9873456738535884 -0.42946017641295325 1.2016890561724096 -0.389870534652696 -0.21519519378853041 0.1203468240902963 -1.1747846122738699 -0.20213085451293647 0.91575456151006451 -0.83787842475769425 1.1385748891641641 0.86733369387126846
decision_type=2 2 2 2 2 2 2 2 2 2 2 2 2 2 2 2 2 2 2 2 2 2 2 2 2 2 2 2 2 2
left_child=1 4 6 5 16 -4 7 -3 9 -5 18 -12 13 -13 15 26 24 -17 19 -2 -21 22 -7 -24 -1 -16 -15 -8 -6 -30
right_child=10 2 3 8 28 21 27 -9 -10 -11 11 12 -14 14 25 17 -18 -19 -20 20 -22 -23 23 -25 -26 -27 -28 -29 29 -31
leaf_value=0.016361835811668352 0.095809426207897577 -0.14342992761778994 -0.14502944075600249 0.089708049146048255 0.10615946169952405 -0.12897109064080572 0.035343113479537176 0.11033318797162908 -0.10569581489899325 -0.12721426530481558 0.10494981418160179 0.098403963029581432 0.098281933331956839 -0.17327291181635027 0.1078752798469132 0.10867307043543922 0.10701100607001468 -0.083851415251989109 0.10366898422924826 0.10643540155357384 -0.11047927831032674 0.10100931362343453 0.11106187950878572 -0.046070107571489549 -0.017606967013538453 0.0017645294963888059 -0.08251275789894541 0.11133811686359874 -0.047105113318450048 0.10727733639871913
leaf_weight=181.15811656415462 12.737939551472666 3.0907966978848007 3.4081975296139744 2.7437842041254035 21.770147632807497 2.7524561174213922 3.0014314278960237 1.9285549148917196 170.44354975968599 1.8063707277178762 19.516732957214117 6.8895897530019274 12.091653950512407 6.4790781773626822 4.4878012947738171 2.5548091530799857 5.5496331602334967 2.1123396828770638 64.822833761572838 1.576289054006337 3.9400324150919914 7.4871322885155651 5.0101695097982883 1.8114381022751329 32.065884843468666 1.8729931376874471 2.4926179647445679 11.789260927587744 1.2850778661668294 1.5483687557280061
leaf_count=1020 185 29 25 25 403 31 31 25 3287 23 304 100 187 40 71 38 95 20 1158 28 30 88 75 25 196 20 22 148 20 25
internal_value=0 -0.240284 -0.763249 -0.90139 0.222291 0.185633 0.599769 -0.459281 -1.02854 0.0359183 0.766187 0.54263 0.288854 -0.0232117 -0.370195 -0.900227 0.136825 0.21537 0.923602 0.522013 -0.484959 0.512431 0.123248 0.693364 0.112534 0.7663 -1.48057 0.959167 0.982246 0.372589
internal_weight=0 458.65 215.273 195.463 243.377 20.4694 19.81 5.01935 174.994 4.55015 141.575 58.4976 38.9809 26.8892 19.9996 13.6388 218.774 4.66715 83.0771 18.2543 5.51632 17.0612 9.57406 6.82161 213.224 6.36079 8.9717 14.7907 24.6036 2.83345
internal_count=7774 5571 3812 3579 1759 244 233 54 3335 48 2203 802 498 311 211 120 1311 58 1401 243 58 219 131 100 1216 91 62 179 448 45
shrinkage=0.1


Tree=23
num_leaves=31
num_cat=0
split_feature=18 0 2 20 8 23 15 2 7 32 8 21 11 11 24 28 13 34 7 36 0 5 24 7 6 14 9 70 14 32
split_gain=96.4395 99.283 36.8535 22.2542 14.574 6.78805 6.3398 7.03174 7.00137 4.73196 6.75413 10.0285 5.11043 4.55591 3.93389 3.44615 3.08684 3.70005 2.80766 3.74029 2.57184 2.56942 4.36085 1.80756 3.60029 1.90301 1.59972 1.31946 1.26796 2.10113
threshold=-0.26040591850552192 -1.035781605123143 0.22275714971534702 -0.42946017641295325 -0.25432005273843555 -0.32221708446644209 -0.14330967172796585 -0.68700230571204191 0.2957374098856555 0.34734534110934712 -1.1436998587112976 -1.5603529873044903 1.4605533661071763 0.10213321750683743 -0.15552506379271833 -0.63910491789750734 -1.877606930245153 -1.6660462382046526 -0.66454282960167166 0.1203468240902963 -1.1747846122738699 0.99036369853044393 0.059040132001591646 1.2592701550947094 -1.5849591522204587 -0.92649056436938171 1.4007026564910598 1.0000000180025095e-35 -0.62089567237070264 1.9114609297159924
decision_type=2 2 2 2 2 2 2 2 2 2 2 2 2 2 2 2 2 2 2 2 2 2 2 2 2 2 2 2 2 2
left_child=1 4 6 14 13 -5 7 26 18 10 11 -2 15 20 -4 -12 17 -17 19 -9 -1 23 -23 25 -25 -18 -3 -11 29 -6
right_child=9 2 3 5 28 -7 -8 8 -10 27 12 -13 -14 -15 -16 16 21 -19 -20 -21 -22 22 -24 24 -26 -27 -28 -29 -30 -31
leaf_value=0.014863733931299359 0.07580784111567318 -0.14225572215502577 -0.058556361387427903 0.040315025815553879 -0.073769606317196104 -0.10597940561654468 0.089911412945877789 0.10705152024437703 -0.11147292273310057 0.10113835861977437 -0.056751027929347719 -0.14738284356817138 -0.041309673184746487 0.10630486254684793 0.089233924339552739 0.10664022064858136 -0.011210145228820653 -0.095119696105940579 0.092277710314588757 -0.10998871735671978 -0.016005626655677452 -0.11624081266680007 0.080359775949980491 -0.049844598089438419 0.086344230460868393 0.10458829260342398 -0.020516089319979728 0.01498935305755851 0.10565338968394543 0.10609861726982428
leaf_weight=179.56298784911633 4.367478933185339 3.6847148835659054 2.3872355856001377 3.2384733594954005 1.0997729413211375 153.77966026589274 10.282356340438126 1.3904877267777949 2.8747883811593047 50.916248690336943 1.9003185629844654 3.7347086817026121 3.937285289168357 5.0531673654913893 7.3350893743336183 1.5909342393279078 1.4679943323135294 2.1203693039715281 8.6266574338078481 1.8509562760591505 31.763285428285599 1.6489539146423329 3.5728232748806477 2.5069804750382891 8.6000797338783723 42.671610586345203 1.5265851058065889 1.8421812318265427 19.869589261710644 1.5860717855393884
leaf_count=1020 52 36 27 46 20 3261 142 24 29 974 21 20 38 95 90 28 20 20 108 27 196 20 61 30 134 763 22 22 398 30
internal_value=0 -0.228902 -0.75452 -0.938714 0.204416 -1.02962 0.261229 -0.0674719 0.285464 0.749925 0.593663 -0.270721 0.693687 0.124677 0.529453 0.759633 0.798929 -0.0863074 0.62463 -0.168846 0.102239 0.853261 0.182764 0.916635 0.55605 1.00737 -1.06594 0.981303 0.969363 0.32448
internal_weight=0 435.912 196.977 166.74 238.935 157.018 30.2365 19.9542 14.7429 130.878 78.1195 8.10219 70.0173 216.379 9.72232 66.0801 64.1797 3.7113 11.8681 3.24144 211.326 60.4684 5.22178 55.2467 11.1071 44.1396 5.2113 52.7584 22.5554 2.68584
internal_count=7774 5571 3812 3424 1759 3307 388 246 188 2203 1207 72 1135 1311 117 1097 1076 48 159 51 1216 1028 81 947 164 783 58 996 448 50
shrinkage=0.1


Tree=24
num_leaves=31
num_cat=0
split_feature=18 0 2 20 8 23 27 34 49 48 39 7 8 8 46 8 11 3 26 0 7 47 17 64 5 16 8 16 11 37
split_gain=84.4437 88.642 33.4549 20.2195 13.4045 6.31878 5.8149 5.54353 8.29297 4.72682 6.82982 10.9303 6.09674 4.2999 4.22265 4.43174 3.81557 3.22472 2.86731 2.82163 2.28095 2.27852 1.94235 3.29969 1.45805 1.3005 1.71989 1.25134 1.18391 1.0613
threshold=-0.26040591850552192 -1.035781605123143 0.22275714971534702 -0.42946017641295325 -0.25432005273843555 -0.32221708446644209 -1.6657723675572738 -0.32286166732204391 -0.3539432298022866 -0.071206919564786433 -0.46141309086499721 0.43126589597110937 -0.19657572083189545 1.2702220516958183 -0.071492222357357152 -0.25503177820615902 -0.41476181458482347 -1.6975986901243363 -0.61966089054558748 -1.1747846122738699 0.28235492402723156 2.9285201327284045 -0.64006289843115471 0.20028163317435985 -1.6300976614062381 1.1385748891641641 0.85957157981404197 -0.3742682086615039 -0.78306715005904903 -1.2241218546944823
decision_type=2 2 2 2 2 2 2 2 2 2 2 2 2 2 2 2 2 2 2 2 2 2 2 2 2 2 2 2 2 2
left_child=1 4 6 16 14 27 -3 8 24 10 11 12 -2 -14 -1 -16 28 18 -12 -17 -9 29 23 -19 -8 -6 -27 -5 -4 -11
right_child=9 2 3 5 25 -7 7 20 -10 21 17 -13 13 -15 15 19 -18 22 -20 -21 -22 -23 -24 -25 -26 26 -28 -29 -30 -31
leaf_value=-0.14827497607591653 -0.085983519446869383 -0.10225229946761785 0.0089074833995421744 -0.03447030432274558 0.10502874873112977 -0.10543955713539828 -0.0039824798957023341 0.10326768463824745 0.087405106218408773 0.037046540768011775 0.10640210277643969 -0.14110091032866862 0.093986876161933755 -0.054332263086130733 0.10689933199247499 0.015204561171860843 -0.075408924161553675 0.089818571716422074 -0.083739953407583501 -0.017755970637629809 -0.0059357415609689185 0.0026165486883340193 0.093921839075491731 -0.065797789317733682 -0.10967101512015701 0.10610937008867874 -0.058794430310334461 0.09178739044897688 0.10490407164179827 0.10196699814336306
leaf_weight=1.6444964446127404 3.0434735864400926 3.1903304010629681 1.6610813289880741 1.3901310935616495 18.145498443394903 139.82168301567435 1.7715291418135164 11.233661316335196 5.0783455483615434 2.6494650244712821 1.2355176731944086 3.9821755401790133 12.008830934762953 2.3346269391477099 4.8681361190974703 177.2540844976902 1.9137652851641158 3.6367419287562361 2.2147113382816306 30.431388691067696 2.3051668480038652 2.584806900471448 34.999848749488592 2.1789832003414631 4.9599877372384071 1.3459063395857804 1.1931636631488798 1.8032242953777302 5.6701226569712171 50.796438314020634
leaf_count=21 28 28 20 20 403 3261 20 174 62 43 22 32 226 24 91 1014 20 61 20 185 22 28 673 24 82 25 20 26 77 1022
internal_value=0 -0.217403 -0.743744 -0.929978 0.187743 -1.02263 0.249842 0.409979 -0.0907281 0.729808 0.547693 0.0834147 0.425687 0.698456 0.113507 0.125857 0.503301 0.771821 -0.156506 0.10375 0.846743 0.943139 0.850294 0.315136 -0.81857 0.956491 0.286175 0.368249 0.831535 0.987487
internal_weight=0 415.682 180.799 152.26 234.883 143.015 28.539 25.3487 11.8099 121.666 65.6349 21.3691 17.3869 14.3435 214.198 212.554 9.24497 44.2658 3.45023 207.685 13.5388 56.0307 40.8156 5.81573 6.73152 20.6846 2.53907 3.19336 7.3312 53.4459
internal_count=7774 5571 3812 3424 1759 3307 388 360 164 2203 1110 310 278 250 1311 1290 117 800 42 1199 196 1093 758 85 102 448 45 46 97 1065
shrinkage=0.1


Tree=25
num_leaves=31
num_cat=0
split_feature=18 0 36 6 8 8 49 32 8 21 11 18 17 11 28 51 2 13 14 11 5 24 24 0 15 12 31 14 37 12
split_gain=73.8455 79.2333 30.4558 13.6719 12.2959 9.8168 8.18702 4.62795 5.89971 7.6928 4.45761 4.18543 4.82412 4.02845 3.26915 3.1242 4.11823 2.92945 3.23625 2.36279 2.24379 9.01568 4.73221 1.70016 1.61699 1.38459 1.37954 1.37476 2.20899 1.15066
threshold=-0.26040591850552192 -1.035781605123143 0.1203468240902963 0.085185949005074313 -0.25432005273843555 -1.3515429529978402 -0.28775545685455489 0.34734534110934712 -1.1436998587112976 -1.5603529873044903 1.4605533661071763 -0.43213905891985427 0.14147825689905627 0.10213321750683743 -0.63910491789750734 -0.2981994950338861 2.5138995579148635 -1.877606930245153 2.4919160415430843 -0.58759704553020886 0.17031775762574217 -0.2071777437272265 -0.21174734225729111 -1.1747846122738699 0.15529077060156218 -1.3255291843346031 -3.1154375810024537 -0.62089567237070264 -0.61819887984326027 -2.2432950508852891
decision_type=2 2 2 2 2 2 2 2 2 2 2 2 2 2 2 2 2 2 2 2 2 2 2 2 2 2 2 2 2 2
left_child=1 4 11 6 13 19 -4 8 9 -2 14 12 -3 23 -10 16 -8 18 -16 -5 29 22 -22 -1 -7 -13 -9 28 -6 -19
right_child=7 2 3 5 27 24 15 26 10 -11 -12 25 -14 -15 17 -17 -18 20 -20 -21 21 -23 -24 -25 -26 -27 -28 -29 -30 -31
leaf_value=0.012133277673971841 0.068289555145694389 -0.085692131715895015 -0.10770434182164167 0.097475170367469346 0.10522989952415894 -0.10391704745604279 -0.09287802429882569 0.0095941481255495328 -0.058914411416326445 -0.13516636713592031 -0.040591618640873801 0.0056021960285895789 0.086423192152587675 0.10542287693113389 -0.092657532382946745 0.10754776392127152 0.10905622007784549 0.0059994975314569994 0.10561449084747231 -0.04993773255401554 0.098644276690366406 0.094831365678359592 -0.14995502871379418 -0.013227955137926779 -0.003231454575914912 0.10873813252750364 0.099422051453337226 0.10464169312602567 -0.088643318489441 0.0990195411405599
leaf_weight=176.67300665378571 3.8672403171658516 3.6321042552590397 4.3280858695507058 3.0110592059791088 1.400060083717108 128.64251552149653 2.391553569585084 1.7801652327179898 1.8516089916229237 3.5777004547417155 3.7626362219452849 1.5274631343781955 2.9520176760852337 4.3638547658920279 2.0575438067317005 5.4687225371599171 1.748156778514385 1.3820246532559313 1.3722782246768472 1.701867002993821 1.0527642704546454 11.299695242196318 2.8082103468477735 31.08386717736721 1.6150661408901203 8.8058066032826865 43.174353875219822 16.55841076374054 1.0128811076283479 35.208256319165237
leaf_count=1020 52 30 79 38 30 3289 20 32 21 20 38 22 46 95 20 65 25 22 28 23 22 235 31 196 21 154 964 398 20 718
internal_value=0 -0.20613 -0.733569 -0.87802 0.172344 -0.975387 0.0649515 0.709526 0.545411 -0.294821 0.648305 0.537887 -0.0852353 0.103361 0.717856 0.579359 -0.0760329 0.761713 -0.133285 0.442435 0.82103 0.497544 -0.8217 0.0833882 -1.02669 0.934926 0.958649 0.943656 0.238477 0.955061
internal_weight=0 396.916 165.824 148.907 231.092 134.971 13.9365 113.194 68.24 7.44494 60.795 16.9174 6.58412 212.121 57.0324 9.60843 4.13971 55.1808 3.42982 4.71293 51.751 15.1607 3.86097 207.757 130.258 10.3333 44.9545 18.9714 2.41294 36.5903
internal_count=7774 5571 3812 3560 1759 3371 189 2203 1207 72 1135 252 76 1311 1097 110 45 1076 48 61 1028 288 53 1216 3310 176 996 448 50 740
shrinkage=0.1


Tree=26
num_leaves=31
num_cat=0
split_feature=18 0 2 20 8 51 36 60 25 37 48 39 7 34 8 11 11 3 8 9 47 37 7 13 4 7 16 22 0 12
split_gain=64.6298 70.8238 28.0847 16.9186 11.2569 5.58203 5.14644 6.39217 7.24736 6.68114 4.40284 5.82463 9.24282 4.91313 4.52194 3.68747 3.08647 2.83424 2.55168 2.28033 2.24805 2.17173 2.12879 1.87547 1.9946 5.82319 1.39927 1.83197 1.38769 1.11506
threshold=-0.26040591850552192 -1.035781605123143 0.22275714971534702 -0.42946017641295325 -0.25432005273843555 -0.48617646810059251 0.37640054799538997 0.28244278974371878 -0.11925358507666371 0.86160446957760561 -0.071206919564786433 -0.46141309086499721 -0.029767988933148557 2.3918856190264877 -0.19657572083189545 0.10213321750683743 -0.41476181458482347 -1.6975986901243363 -0.87441124115848534 -0.52674048733823553 2.9285201327284045 -0.19155823000030722 -1.6947490929633282 -2.4374460760443024 -1.0041925691777449 -0.18864905670605561 1.1385748891641641 -0.47138698401909512 -1.1747846122738699 -1.4034864572290682
decision_type=2 2 2 2 2 2 2 2 2 2 2 2 2 2 2 2 2 2 2 2 2 2 2 2 2 2 2 2 2 2
left_child=1 4 6 16 15 -5 7 -3 9 22 11 12 14 -14 -2 28 -4 18 -13 -16 -12 -21 -9 -19 25 -25 -6 -28 -1 -26
right_child=10 2 3 5 26 -7 -8 8 -10 -11 20 17 13 -15 19 -17 -18 23 -20 21 -22 -23 -24 24 29 -27 27 -29 -30 -31
leaf_value=0.010997936066658534 -0.071824937760567684 0.10983392570412116 0.079283639228762359 0.074945056618665004 0.1041236652470402 -0.10386303860365263 -0.10185494757627225 -0.00039759667564102279 0.098132670942414166 0.10108815767836388 0.096528929788827766 -0.082284430319572652 -0.15260161184102522 0.10503452343089895 0.10523167845986946 0.10488403627952443 -0.069600416392861728 -0.039284584959168541 0.10596832644257539 -0.05915160478348476 -0.0018792921875425304 0.10503880780557032 -0.12900520011210653 -0.10214069190931561 0.041565657136789294 0.094359899514890822 0.10544353363438681 -0.073342759574965707 -0.011997791149971874 0.10570793971443096
leaf_weight=175.48564022779465 2.5589608028531101 8.2576057910919225 6.4482146054506302 1.7724042460322369 15.111588444560768 116.73072933778167 2.8926495723426333 1.6809285618364826 4.8708718419074986 2.1783795841038227 45.366218280047178 2.0922955833375458 4.3156479783356181 0.89342834055423714 7.7974742762744427 3.9678295478224745 1.7758809812366942 1.2516970522701729 1.0978026650845993 2.0106420181691651 2.4465482383966437 1.3441110178828219 5.492870481684804 2.0855467543005943 3.0653090216219416 5.4469071701169005 1.2043877057731154 1.0934641584753979 30.856416314840317 23.39815961569548
leaf_count=1020 26 139 97 34 403 3273 30 32 66 43 1065 21 35 20 173 95 20 20 21 25 28 31 78 26 63 105 25 20 196 544
internal_value=0 -0.194989 -0.723356 -0.915631 0.157923 -1.01189 0.236965 0.398515 -0.00778816 -0.522946 0.690833 0.504026 0.0498202 -1.08413 0.480626 0.0939534 0.471342 0.7276 -0.175014 0.755717 0.914934 0.0663271 -0.988705 0.809292 0.853553 0.399538 0.930685 0.203656 0.0755915 0.982782
internal_weight=0 379.82 152.101 126.727 227.719 118.503 25.3733 22.4807 14.2231 9.35218 105.171 57.358 18.9203 5.20908 13.7112 210.31 8.2241 38.4377 3.1901 11.1522 47.8128 3.35475 7.1738 35.2476 33.9959 7.53245 17.4094 2.29785 206.342 26.4635
internal_count=7774 5571 3812 3424 1759 3307 388 358 219 153 2203 1110 310 55 255 1311 117 800 42 229 1093 56 110 758 738 131 448 45 1216 607
shrinkage=0.1


Tree=27
num_leaves=31
num_cat=0
split_feature=18 0 2 20 8 23 15 2 7 32 8 21 46 23 14 6 5 8 24 48 0 25 13 21 0 14 17 70 7 9
split_gain=56.6115 63.4361 25.3884 15.4282 10.2812 5.34636 4.48223 4.63037 4.83721 4.34155 5.12644 5.90548 3.90133 3.77485 6.22231 6.01481 4.96611 3.61021 3.03208 2.7927 5.23838 5.08741 2.65232 2.43396 1.64959 1.43713 2.09603 1.40088 1.28406 1.16587
threshold=-0.26040591850552192 -1.035781605123143 0.22275714971534702 -0.42946017641295325 -0.25432005273843555 -0.32221708446644209 -0.14330967172796585 -0.68700230571204191 0.59101722493335951 0.34734534110934712 -1.1436998587112976 -1.5603529873044903 -0.071492222357357152 0.024218285730813645 -0.62089567237070264 -0.16418170395904716 0.89925660646171501 -0.25503177820615902 -0.15552506379271833 -0.27465090339636966 -1.1747846122738699 -0.12096829069131361 0.19264818084461641 -0.31384467103004166 -1.1747846122738699 -0.62089567237070264 -0.67330170387606592 1.0000000180025095e-35 -0.66454282960167166 1.4007026564910598
decision_type=2 2 2 2 2 2 2 2 2 2 2 2 2 2 2 2 2 2 2 2 2 2 2 2 2 2 2 2 2 2
left_child=1 4 6 18 12 -5 7 29 22 10 11 -2 -1 14 15 -12 19 -14 -4 20 -16 -22 23 -9 -19 26 -6 -11 -24 -3
right_child=9 2 3 5 25 -7 -8 8 -10 27 13 -13 17 -15 16 -17 -18 24 -20 -21 21 -23 28 -25 -26 -27 -28 -29 -30 -31
leaf_value=-0.14551803869959662 0.061098793585318972 -0.13200194571230231 -0.059255788477867555 0.036304264232468735 0.1046114028658892 -0.10419704153799553 0.083278545078244837 0.074799281462332931 -0.13549684322043073 0.097527074410951334 -0.16396024632639145 -0.12497722082917424 0.10574615494778244 0.092721154007866971 0.096304351579812625 0.058346887206033426 -0.12762238176247651 0.011656738967817066 0.08174761065487611 0.10460504115187319 0.08345367888836995 -0.1036627382850861 -0.010487814310258041 -0.12039829398237867 -0.013859931697276296 0.10380821747942273 -0.090673571129454816 0.00039212061739936712 0.10272686329976266 -0.01733487094935544
leaf_weight=1.6310613341629494 3.4403588324785233 2.9639276787638655 2.0709922686219215 2.7799592018127433 1.2271273434162142 105.07351991720498 8.1110450252890569 1.1378135513514283 1.6100576277822245 36.701068919152021 2.7241095509380102 3.3824839293956748 3.844694919884204 21.882156196981668 6.9335971549153328 2.1999593228101757 1.364497672766446 173.52218376100063 5.7850476726889601 11.382272496819494 2.3816658966243267 3.7265361323952728 1.2079335879534463 1.4565415810793654 29.667028859257698 13.75900192186236 0.99548221006989568 1.547340191900729 5.8704947810620087 1.2651835270226
leaf_count=21 52 36 27 46 30 3261 142 22 22 974 30 20 91 513 161 44 20 1014 90 286 47 34 27 25 185 398 20 22 92 22
internal_value=0 -0.184236 -0.714331 -0.907205 0.144544 -1.00576 0.2304 -0.0845814 0.249914 0.673189 0.504028 -0.3115 0.0853393 0.609822 0.383689 -0.646386 0.580371 0.0974759 0.445766 0.684093 0.368194 -0.307037 0.51705 -0.3479 0.0793113 0.917558 0.171454 0.935975 0.834068 -0.976981
internal_weight=0 363.979 139.333 115.71 224.647 107.853 23.623 15.512 11.2828 97.666 59.4176 6.82284 208.665 52.5948 30.7126 4.92407 25.7886 207.034 7.85604 24.4241 13.0418 6.1082 9.67278 2.59436 203.189 15.9816 2.22261 38.2484 7.07843 4.22911
internal_count=7774 5571 3812 3424 1759 3307 388 246 188 2203 1207 72 1311 1135 622 74 548 1290 117 528 242 81 166 47 1199 448 50 996 119 58
shrinkage=0.1


Tree=28
num_leaves=31
num_cat=0
split_feature=18 0 8 21 18 18 14 40 16 15 13 32 53 0 32 48 19 3 5 17 23 37 19 0 9 26 7 7 14 10
split_gain=49.6588 64.3007 17.494 25.4659 14.2392 5.6648 4.2947 3.79996 5.57268 6.90326 6.16368 3.01416 2.86484 2.59478 5.11986 5.86204 2.36045 2.07975 1.94516 1.92303 5.67046 1.63304 1.24689 1.19882 1.16404 1.17078 1.14693 1.10196 0.788863 4.89291
threshold=-0.43501339528248534 -1.035781605123143 -1.0374768288114142 -0.9286061456860164 -0.43573653323653294 -0.51717359183269873 -0.25717174131925041 -0.35882445351633724 1.5417521311283497 0.19402988575041358 -0.96330698808185711 0.40545250519623238 4.9432075690208226 -0.75777559082168888 -0.25006934007387127 1.0000000180025095e-35 -1.076835700785167 0.33007303952440586 0.17124691816623766 -0.64006289843115471 -0.21303959618985338 0.07786566011731233 -0.35187293418093674 -1.1747846122738699 1.4007026564910598 -0.84489475796673641 -0.56793506102018776 -0.19831859066827554 -0.50966818944521119 -0.70855913667510873
decision_type=2 2 2 2 2 2 2 2 2 2 2 2 2 2 2 2 2 2 2 2 2 2 2 2 2 2 2 2 2 2
left_child=1 6 3 21 5 16 18 8 10 -10 -4 -5 19 -12 15 -15 -3 24 23 20 -9 -2 -22 -1 25 -7 -8 -11 29 -21
right_child=2 4 7 11 -6 17 26 12 9 27 13 -13 -14 14 -16 -17 -18 -19 -20 28 22 -23 -24 -25 -26 -27 -28 -29 -30 -31
